#ifndef MODEL_WEIGHTS_H
#define MODEL_WEIGHTS_H

// Generated by ai_train.py (OOP Version)
// Inference preprocessing must be per-window/per-axis relative normalization.

const float dense1_weights[8640] = {-0.014929f, 0.008872f, 0.045551f, 0.166314f, -0.041200f, -0.027267f, 0.233498f, 0.105592f, 0.010316f, -0.102214f, -0.008407f, -0.061870f, 0.008617f, -0.226189f, -0.194782f, -0.102521f, -0.098164f, 0.003941f, -0.065903f, -0.141708f, 0.148761f, -0.024058f, 0.015692f, -0.192487f, -0.060309f, 0.057425f, -0.082224f, 0.001737f, -0.050826f, -0.008521f, -0.035453f, 0.204386f, 0.101792f, -0.132500f, 0.113020f, -0.128582f, 0.046533f, -0.192466f, -0.218376f, 0.003382f, 0.023350f, 0.157741f, -0.070652f, -0.096606f, -0.141571f, -0.033620f, -0.009842f, 0.211814f, 0.064993f, -0.142068f, 0.039194f, -0.033283f, -0.065708f, 0.070330f, 0.080850f, 0.096757f, -0.078940f, -0.061826f, 0.004763f, 0.079232f, -0.048143f, -0.065447f, -0.095856f, -0.089734f, 0.052006f, 0.077899f, -0.004507f, 0.106121f, 0.034099f, -0.064251f, 0.073845f, 0.150621f, 0.000847f, 0.157079f, -0.214152f, 0.053088f, 0.009545f, -0.011959f, 0.009183f, -0.213753f, -0.037181f, 0.034089f, 0.149366f, -0.045554f, -0.081125f, -0.051243f, 0.113653f, 0.029698f, -0.052508f, 0.041516f, 0.011799f, 0.106795f, -0.072552f, -0.010266f, -0.038883f, -0.128445f, 0.056320f, 0.021241f, 0.017179f, -0.015182f, -0.138708f, -0.046323f, -0.037956f, -0.081419f, -0.014290f, 0.046876f, 0.158865f, -0.015492f, 0.021848f, -0.007383f, -0.176668f, 0.023164f, -0.011484f, 0.243076f, -0.036113f, 0.032313f, 0.003753f, -0.113773f, 0.122788f, 0.091918f, 0.080911f, -0.112568f, 0.158818f, -0.130754f, 0.058171f, 0.219790f, -0.123985f, -0.070459f, -0.000654f, -0.023062f, -0.161979f, 0.010228f, -0.107722f, 0.062279f, -0.090941f, 0.180949f, -0.077991f, -0.054048f, 0.071949f, -0.115805f, 0.022083f, 0.127501f, -0.160597f, 0.027326f, 0.036296f, 0.091309f, -0.112991f, -0.125658f, 0.055067f, 0.026686f, 0.017352f, 0.025071f, -0.062734f, 0.020530f, 0.009800f, -0.092543f, 0.185059f, 0.035362f, -0.106591f, 0.084492f, -0.102382f, 0.067878f, 0.119759f, -0.081294f, 0.102549f, 0.045964f, 0.084948f, 0.203120f, -0.028070f, -0.061961f, -0.077133f, -0.101372f, -0.006533f, 0.049819f, 0.022626f, 0.078034f, 0.000120f, 0.155408f, -0.011028f, 0.273108f, 0.057033f, -0.070144f, -0.114091f, 0.070944f, -0.023192f, 0.076688f, 0.043073f, -0.049959f, -0.083263f, -0.139792f, -0.023359f, 0.093009f, 0.031818f, -0.089498f, 0.021939f, 0.043524f, -0.077673f, 0.005096f, -0.008357f, -0.157717f, 0.050683f, 0.044014f, 0.100672f, 0.108019f, -0.136064f, -0.114751f, 0.060928f, 0.070901f, 0.054735f, 0.383947f, 0.061434f, 0.113400f, 0.103762f, 0.067792f, -0.034851f, 0.096249f, -0.081251f, -0.008327f, -0.041662f, -0.011033f, 0.233121f, -0.174266f, 0.063445f, -0.159439f, -0.044957f, 0.147294f, 0.024962f, -0.110016f, -0.076170f, 0.079486f, -0.091218f, 0.041110f, 0.001551f, -0.062549f, 0.213986f, 0.030993f, -0.199190f, 0.023843f, -0.041793f, 0.088664f, -0.064490f, 0.016851f, 0.045650f, 0.090742f, -0.107863f, -0.046034f, -0.059981f, -0.105192f, 0.190398f, 0.027552f, -0.127387f, 0.100341f, 0.213377f, 0.084979f, -0.148443f, -0.031959f, 0.135150f, -0.072156f, 0.049416f, 0.076829f, -0.085019f, -0.001568f, -0.323312f, -0.077873f, -0.032631f, -0.103921f, 0.164712f, -0.162468f, -0.043828f, 0.027273f, 0.138404f, -0.136417f, 0.121533f, 0.016607f, -0.076331f, 0.043386f, 0.013166f, -0.044816f, -0.002706f, -0.003150f, 0.001647f, 0.077680f, 0.156460f, -0.170716f, 0.214386f, -0.183447f, 0.010862f, 0.066081f, 0.034337f, -0.058328f, -0.030635f, -0.045480f, -0.049139f, 0.074186f, 0.030538f, -0.099221f, 0.100916f, 0.019000f, 0.086521f, 0.069072f, -0.082810f, -0.068877f, 0.073193f, 0.067754f, 0.015099f, 0.001321f, 0.133677f, -0.059503f, 0.063301f, -0.015983f, -0.015207f, 0.144486f, 0.072077f, 0.107395f, 0.126544f, -0.023906f, 0.066566f, -0.012591f, 0.026237f, -0.005224f, 0.022676f, 0.055906f, -0.062239f, 0.206532f, -0.108612f, -0.104683f, 0.114030f, 0.119980f, 0.049447f, 0.076153f, -0.001188f, -0.141878f, 0.007019f, -0.053886f, 0.119872f, -0.009954f, -0.076592f, -0.052938f, 0.031369f, -0.052624f, -0.075811f, 0.020972f, 0.034456f, -0.071129f, -0.042496f, 0.016200f, -0.139631f, -0.151605f, -0.073853f, -0.022929f, 0.028854f, 0.150319f, 0.101017f, -0.035245f, 0.000472f, -0.099768f, 0.008586f, -0.023217f, 0.053661f, -0.039854f, 0.039619f, 0.168356f, -0.020691f, 0.016023f, 0.066909f, -0.021094f, 0.012962f, 0.002745f, 0.027104f, -0.097718f, 0.018654f, 0.048924f, 0.142227f, 0.111560f, 0.228282f, -0.020348f, 0.069033f, 0.021126f, 0.209630f, -0.123581f, -0.086001f, -0.040836f, -0.194135f, -0.047858f, -0.058194f, -0.007443f, 0.019183f, 0.191778f, 0.108388f, -0.064656f, -0.085731f, 0.024645f, -0.126240f, 0.169130f, 0.131103f, -0.050015f, -0.174084f, 0.135393f, -0.018110f, 0.125931f, -0.151432f, -0.071917f, 0.004082f, 0.005128f, -0.037195f, 0.064049f, -0.091556f, 0.012409f, 0.007018f, 0.066756f, 0.064444f, -0.136302f, -0.154300f, 0.142396f, 0.024546f, -0.078330f, 0.166157f, 0.024348f, 0.135717f, 0.005571f, 0.199535f, 0.185902f, -0.032717f, 0.115824f, 0.061221f, 0.141235f, -0.094736f, 0.036307f, 0.107856f, -0.170404f, -0.098761f, -0.200069f, -0.011626f, 0.078972f, 0.147759f, 0.010870f, 0.171438f, -0.142682f, -0.182945f, -0.053622f, 0.052907f, -0.017279f, -0.184655f, -0.009531f, -0.129117f, 0.049032f, 0.037814f, -0.089026f, -0.048658f, -0.117627f, -0.002047f, 0.096920f, -0.090819f, 0.050277f, -0.040258f, -0.062898f, -0.011762f, -0.093422f, -0.062527f, -0.144646f, 0.196068f, 0.016322f, -0.078108f, 0.012078f, -0.000081f, -0.000290f, 0.084571f, 0.076242f, -0.059158f, -0.047884f, -0.038277f, -0.223896f, -0.151077f, 0.135631f, 0.162532f, -0.061621f, 0.061342f, 0.030971f, 0.332282f, 0.111898f, -0.003859f, -0.068503f, -0.148531f, 0.022705f, -0.073861f, -0.144837f, -0.085024f, -0.160864f, 0.184618f, 0.082626f, 0.016048f, 0.138254f, 0.012039f, -0.110587f, 0.164574f, 0.062269f, -0.110830f, -0.036448f, -0.090512f, -0.136202f, 0.099964f, 0.187650f, -0.125138f, 0.070763f, -0.061544f, -0.046302f, -0.065347f, -0.105126f, 0.003943f, -0.072932f, 0.011712f, -0.017153f, -0.019035f, -0.062395f, -0.034266f, 0.077288f, 0.042783f, -0.089498f, -0.003313f, 0.069046f, -0.161470f, 0.050416f, -0.071150f, 0.027829f, -0.071825f, -0.187139f, -0.140776f, 0.002626f, 0.033107f, -0.051200f, 0.077041f, -0.161680f, -0.002925f, -0.125955f, -0.086183f, -0.058593f, -0.066445f, -0.051389f, 0.109217f, -0.064166f, 0.088490f, -0.143967f, 0.066372f, 0.151153f, -0.258159f, -0.114130f, 0.052351f, -0.017518f, 0.045135f, -0.064321f, 0.029305f, 0.007612f, 0.119456f, 0.024532f, 0.023778f, -0.063823f, -0.051458f, -0.027299f, 0.020589f, -0.053487f, 0.028515f, 0.233620f, 0.111459f, -0.030551f, 0.112203f, -0.034629f, -0.217363f, -0.107945f, -0.177826f, -0.042861f, -0.003580f, 0.139107f, 0.037185f, -0.028773f, 0.105066f, -0.223718f, 0.032565f, 0.127162f, -0.133685f, 0.120016f, 0.037463f, -0.048005f, 0.047083f, 0.161573f, 0.038545f, 0.002417f, -0.054068f, -0.080707f, 0.087510f, -0.122826f, 0.016448f, -0.038940f, 0.034509f, 0.002623f, 0.092002f, -0.048889f, -0.017453f, -0.102719f, -0.024240f, 0.065431f, 0.076989f, -0.103575f, 0.075869f, 0.124133f, 0.038560f, 0.198198f, -0.101539f, -0.135647f, -0.183779f, 0.159633f, 0.083123f, -0.003369f, 0.021005f, -0.106814f, 0.236952f, 0.004393f, 0.015604f, 0.061133f, 0.041702f, -0.003839f, -0.076883f, 0.042651f, 0.201285f, 0.130500f, 0.159137f, -0.008363f, -0.085249f, -0.006158f, 0.011194f, 0.101746f, -0.187035f, 0.092735f, 0.001814f, -0.056498f, -0.120153f, -0.164373f, 0.085964f, -0.029748f, -0.123110f, -0.116317f, -0.039429f, 0.131144f, -0.037797f, -0.149284f, -0.013814f, -0.029724f, -0.247212f, 0.033236f, -0.026202f, 0.060160f, 0.168846f, 0.102495f, -0.030867f, -0.095553f, 0.233004f, 0.000699f, 0.007821f, -0.013364f, 0.027463f, -0.013350f, -0.060020f, -0.049037f, -0.002894f, -0.038430f, -0.072099f, -0.002058f, -0.037120f, 0.127505f, -0.267255f, 0.114568f, 0.122165f, -0.204681f, -0.020645f, -0.005819f, -0.138278f, -0.070585f, -0.100945f, 0.166001f, 0.083280f, 0.070722f, 0.086963f, -0.127076f, -0.072221f, 0.050503f, -0.120377f, 0.042043f, -0.027117f, -0.026224f, 0.070134f, 0.009949f, -0.048204f, 0.115771f, -0.098901f, 0.060806f, 0.081114f, 0.015196f, 0.026837f, -0.133270f, 0.073758f, -0.025374f, -0.056911f, 0.117559f, -0.094991f, -0.144050f, -0.139662f, 0.043019f, -0.121696f, 0.175319f, -0.209485f, 0.175071f, 0.021197f, 0.015479f, -0.057640f, 0.027028f, -0.013763f, 0.091250f, 0.007968f, 0.019949f, -0.041289f, -0.001198f, 0.043507f, -0.149902f, -0.136408f, 0.080391f, 0.024689f, -0.029550f, -0.009833f, -0.018525f, -0.040502f, -0.091864f, 0.008064f, -0.094084f, 0.041412f, -0.193635f, 0.095269f, 0.055804f, 0.025618f, 0.077389f, 0.157107f, 0.101004f, -0.174788f, -0.127536f, -0.043588f, 0.047851f, 0.045068f, -0.082514f, -0.002063f, -0.077357f, -0.064259f, -0.136689f, -0.112236f, -0.139742f, -0.086723f, 0.086610f, -0.088262f, 0.263638f, 0.049327f, 0.027876f, -0.079147f, 0.098355f, -0.064372f, 0.001494f, 0.244593f, -0.034783f, 0.111491f, -0.069088f, -0.007248f, 0.180079f, -0.057165f, 0.191866f, 0.074540f, -0.050806f, 0.068933f, 0.089847f, 0.052130f, -0.201560f, -0.057860f, -0.036282f, -0.010109f, 0.046960f, 0.018485f, -0.154017f, 0.039137f, 0.068110f, 0.064348f, 0.104351f, 0.078521f, 0.044894f, 0.003454f, -0.168868f, 0.056316f, 0.050821f, 0.021323f, -0.131592f, -0.133461f, 0.104856f, -0.004878f, 0.067627f, -0.009478f, 0.001847f, 0.105676f, -0.053059f, 0.018405f, -0.045395f, -0.040276f, -0.028966f, 0.022790f, -0.032647f, 0.125326f, -0.103297f, -0.028046f, -0.062488f, 0.143813f, 0.013304f, 0.103949f, -0.141818f, 0.024810f, 0.080160f, -0.001989f, 0.105050f, -0.025967f, 0.134798f, 0.226326f, -0.119775f, -0.017838f, 0.116166f, 0.159843f, -0.071932f, -0.040693f, -0.019740f, -0.149423f, -0.088007f, -0.088213f, -0.077564f, -0.004439f, 0.026426f, 0.161976f, -0.106198f, 0.106038f, 0.047548f, -0.017653f, 0.081050f, -0.140428f, 0.043505f, 0.012669f, 0.040119f, 0.019638f, 0.257307f, -0.043836f, -0.029522f, -0.037476f, -0.050359f, -0.079783f, 0.117032f, 0.138021f, -0.012968f, -0.089920f, 0.046960f, -0.064140f, 0.050066f, 0.020806f, -0.183228f, 0.174334f, 0.180015f, -0.070047f, -0.071746f, 0.066399f, 0.038999f, 0.057411f, 0.201010f, -0.003853f, -0.085261f, -0.126008f, -0.081568f, -0.004286f, 0.114466f, -0.051656f, 0.012190f, 0.033295f, 0.131239f, 0.265960f, -0.006814f, -0.059299f, 0.101809f, 0.084095f, 0.175202f, 0.048487f, -0.035426f, 0.056561f, 0.113627f, 0.051684f, 0.084177f, 0.109375f, 0.104677f, 0.123778f, 0.059789f, 0.011283f, 0.062687f, 0.108238f, -0.082728f, 0.051723f, -0.042434f, -0.024091f, 0.112452f, 0.023290f, -0.002254f, -0.148469f, 0.102626f, 0.065650f, 0.198333f, -0.051043f, 0.019412f, 0.068806f, 0.073322f, -0.027727f, 0.032327f, 0.065648f, 0.021177f, -0.001951f, 0.036736f, 0.115688f, -0.111097f, 0.009595f, -0.095380f, 0.106129f, -0.121119f, -0.086632f, 0.065599f, 0.156488f, 0.046638f, -0.048631f, 0.183916f, -0.138091f, -0.228942f, 0.029132f, -0.059913f, -0.104460f, 0.086856f, -0.012185f, -0.040186f, -0.122036f, 0.075387f, 0.070730f, -0.020562f, 0.159239f, -0.025106f, -0.108608f, -0.069759f, -0.003778f, 0.020381f, -0.065778f, 0.009692f, -0.123237f, 0.146787f, -0.026474f, 0.095272f, 0.047644f, -0.000019f, 0.102189f, 0.024265f, 0.081590f, 0.121692f, 0.013247f, 0.075795f, 0.002066f, 0.145316f, -0.054617f, 0.169569f, 0.008242f, -0.169365f, 0.010906f, -0.072956f, 0.080448f, -0.074166f, -0.055621f, -0.175998f, -0.038609f, -0.222348f, -0.145990f, 0.073450f, 0.084859f, 0.034024f, -0.093783f, 0.003127f, -0.003944f, -0.098248f, 0.109509f, 0.082071f, -0.020038f, 0.013217f, 0.030037f, -0.221446f, -0.028348f, -0.053421f, -0.072860f, -0.028282f, 0.180868f, 0.061818f, -0.066887f, 0.051630f, 0.139447f, 0.105026f, -0.009333f, -0.097728f, 0.073532f, 0.032050f, 0.113096f, 0.043484f, 0.120960f, -0.057775f, 0.131128f, 0.022881f, 0.219362f, -0.070265f, 0.176522f, -0.002826f, -0.051393f, -0.062769f, -0.031445f, 0.032654f, 0.051269f, -0.068686f, -0.006591f, 0.233531f, 0.176031f, 0.030941f, 0.011792f, 0.009262f, 0.064553f, -0.110086f, -0.012486f, -0.147153f, 0.033788f, 0.090843f, -0.090084f, 0.139852f, -0.124595f, -0.120029f, 0.026376f, 0.089201f, 0.161134f, -0.067060f, 0.124316f, -0.003215f, -0.020420f, 0.086668f, 0.079105f, -0.133214f, 0.139855f, 0.146301f, -0.079252f, 0.002278f, 0.046903f, 0.038261f, -0.043764f, -0.083682f, 0.006548f, 0.119319f, 0.053907f, -0.033694f, 0.084551f, -0.285104f, 0.114279f, -0.197512f, -0.026673f, -0.117044f, -0.132684f, 0.111905f, -0.047582f, 0.021581f, -0.013078f, 0.059555f, 0.020211f, -0.140173f, 0.098792f, -0.051675f, -0.144226f, -0.050904f, 0.169350f, 0.113248f, -0.040987f, -0.016421f, -0.073271f, 0.201665f, 0.034078f, 0.075176f, 0.096173f, 0.009142f, -0.018688f, -0.043978f, -0.003274f, -0.003200f, 0.082067f, 0.002869f, 0.092370f, 0.021131f, -0.000928f, -0.199011f, 0.072442f, 0.009420f, 0.094458f, -0.264467f, 0.205095f, -0.019560f, 0.143558f, -0.086819f, 0.061390f, -0.101178f, -0.049017f, 0.195540f, -0.022663f, 0.020611f, 0.086939f, 0.050771f, -0.016328f, 0.039243f, 0.235915f, -0.019579f, 0.009024f, 0.099354f, 0.118112f, 0.119607f, 0.058821f, -0.117520f, 0.175291f, -0.124996f, 0.046749f, -0.051156f, -0.007886f, 0.036012f, -0.002987f, 0.044876f, 0.159262f, 0.064839f, -0.033696f, 0.077719f, 0.138778f, -0.133510f, 0.065912f, 0.069995f, -0.019907f, 0.140671f, 0.001634f, 0.065942f, -0.028304f, 0.003308f, -0.144667f, -0.165621f, 0.152086f, -0.069902f, -0.103038f, -0.234107f, -0.051377f, -0.133507f, 0.156678f, 0.105109f, -0.044976f, 0.219780f, 0.092904f, -0.064567f, -0.244916f, 0.212646f, -0.140278f, -0.155345f, 0.099599f, 0.246870f, 0.110761f, 0.081721f, 0.058526f, 0.076463f, 0.075648f, 0.025937f, 0.015943f, -0.018450f, -0.061334f, 0.003940f, -0.167501f, -0.007036f, -0.125708f, -0.117647f, 0.017756f, 0.151018f, 0.091537f, -0.171280f, -0.097385f, 0.067254f, -0.091925f, -0.022118f, 0.055537f, -0.098831f, 0.026722f, -0.094695f, -0.065571f, 0.034494f, -0.170472f, 0.015343f, -0.004845f, 0.069032f, 0.024160f, 0.125396f, 0.033917f, -0.063295f, 0.006783f, 0.059602f, 0.019586f, 0.003320f, -0.079790f, -0.088907f, -0.137607f, 0.175651f, -0.130746f, -0.077796f, -0.075840f, 0.096540f, -0.049833f, 0.149679f, -0.067735f, 0.035667f, -0.082069f, 0.211595f, -0.112893f, 0.017965f, 0.070913f, 0.063998f, -0.012821f, -0.013310f, -0.015622f, -0.014098f, 0.098206f, 0.222329f, -0.054080f, -0.148892f, -0.005996f, 0.270781f, -0.065020f, 0.162479f, 0.170968f, -0.059549f, 0.057103f, 0.189247f, -0.039307f, -0.022988f, -0.070005f, -0.112707f, -0.063956f, -0.122604f, 0.010628f, -0.085810f, 0.042166f, -0.179772f, 0.031939f, 0.087807f, -0.187184f, 0.038067f, 0.112423f, -0.140993f, 0.165040f, 0.045426f, -0.075860f, -0.021161f, 0.051358f, 0.020072f, 0.037103f, -0.070645f, 0.017808f, -0.115876f, -0.006951f, -0.094411f, -0.070325f, 0.109766f, 0.106144f, 0.068073f, -0.102188f, -0.032830f, 0.105376f, 0.023576f, 0.236457f, 0.029666f, 0.026338f, -0.040925f, 0.024985f, 0.014922f, 0.088448f, 0.094997f, -0.077261f, -0.138394f, -0.191273f, 0.061863f, -0.109948f, -0.221102f, 0.031095f, 0.242745f, 0.003176f, 0.075925f, 0.024024f, -0.029615f, 0.116277f, -0.074158f, 0.015035f, 0.039849f, -0.047900f, 0.098352f, -0.015844f, -0.079093f, 0.049062f, -0.093654f, -0.000516f, -0.015897f, 0.100512f, 0.071343f, -0.030527f, 0.103856f, 0.139573f, 0.106490f, 0.006694f, -0.136928f, -0.104256f, -0.045819f, -0.075910f, -0.034011f, 0.015150f, 0.050187f, -0.017627f, 0.065074f, 0.013898f, -0.217816f, -0.082641f, -0.021912f, -0.113938f, 0.126211f, 0.183393f, 0.118947f, -0.023403f, 0.140210f, -0.008098f, -0.047000f, -0.050709f, -0.033230f, -0.037012f, 0.011095f, 0.026357f, -0.027450f, 0.076155f, 0.098577f, 0.128547f, -0.171206f, -0.253530f, 0.100469f, -0.119422f, -0.020555f, -0.121797f, -0.185936f, 0.060649f, 0.067011f, -0.059241f, -0.280846f, -0.059522f, 0.045208f, -0.156912f, 0.035204f, 0.002782f, 0.121657f, 0.022881f, -0.104372f, 0.123254f, -0.030114f, -0.027164f, -0.117923f, -0.036802f, -0.085677f, -0.028482f, 0.189997f, -0.128122f, -0.185970f, 0.165198f, -0.024765f, -0.064811f, 0.160169f, -0.036585f, 0.180264f, 0.065758f, -0.055139f, 0.193502f, -0.070941f, 0.078679f, 0.029106f, 0.133448f, 0.153245f, 0.010979f, -0.097120f, 0.071050f, -0.086957f, 0.225399f, -0.000007f, -0.026595f, 0.025182f, -0.123540f, -0.095158f, 0.111190f, -0.079044f, -0.096821f, 0.043740f, 0.118207f, 0.049850f, 0.096693f, -0.076715f, -0.141081f, 0.163678f, -0.019707f, 0.052810f, 0.142483f, 0.049523f, 0.054418f, 0.203471f, -0.091136f, 0.062261f, 0.012544f, 0.021675f, 0.137783f, 0.079086f, 0.062759f, 0.080960f, -0.019530f, -0.088152f, -0.089330f, -0.150637f, 0.220948f, -0.110868f, -0.014755f, -0.032063f, 0.014399f, 0.071516f, 0.090186f, -0.062774f, -0.019001f, 0.030355f, -0.020003f, 0.141848f, 0.062325f, 0.058747f, 0.086785f, 0.105046f, 0.031018f, -0.123960f, 0.049428f, -0.063255f, -0.058661f, 0.047751f, 0.134854f, -0.010537f, 0.029902f, 0.148046f, 0.023118f, 0.252688f, 0.063311f, -0.176262f, 0.088645f, 0.098441f, 0.140107f, 0.062012f, -0.006284f, -0.133987f, -0.040785f, -0.109198f, -0.055120f, 0.059258f, 0.151827f, 0.062379f, -0.112563f, 0.031539f, 0.136657f, -0.065406f, -0.000093f, 0.040581f, -0.060214f, 0.065510f, -0.002013f, 0.036731f, -0.099409f, -0.045900f, 0.075269f, -0.044237f, 0.169941f, -0.044492f, 0.026787f, 0.081587f, -0.124625f, -0.193983f, -0.132670f, 0.097158f, -0.050816f, 0.262024f, -0.043477f, 0.019905f, 0.157582f, 0.192896f, 0.211901f, 0.110188f, 0.102294f, 0.035670f, 0.074594f, -0.058330f, -0.085928f, -0.001666f, -0.015067f, -0.000334f, 0.084951f, 0.090268f, 0.010509f, 0.136617f, -0.132380f, -0.034968f, -0.071490f, -0.181709f, -0.023216f, 0.007793f, 0.158155f, 0.057062f, -0.081632f, 0.180834f, 0.128009f, 0.085601f, -0.003740f, -0.096113f, -0.031363f, 0.105515f, 0.183477f, 0.161931f, -0.048018f, -0.114969f, 0.009867f, -0.183578f, 0.035102f, -0.019125f, -0.031023f, -0.173752f, 0.067675f, -0.077279f, -0.116263f, -0.281942f, 0.010819f, 0.177882f, 0.172003f, -0.052358f, -0.057860f, 0.034150f, -0.099105f, 0.018244f, 0.073188f, 0.115278f, -0.019026f, -0.025214f, -0.091711f, -0.046124f, -0.015369f, 0.032166f, 0.093315f, -0.091928f, 0.138816f, -0.029455f, -0.003718f, -0.078966f, -0.255843f, 0.125094f, 0.078617f, -0.027799f, 0.018334f, 0.045139f, -0.152134f, -0.033386f, 0.090982f, -0.125298f, 0.040260f, -0.143642f, 0.042042f, 0.005290f, -0.158576f, 0.108653f, -0.076494f, -0.076385f, 0.021975f, 0.116630f, -0.094250f, -0.000581f, 0.067949f, 0.035077f, 0.014345f, -0.030770f, -0.064792f, 0.008099f, -0.094458f, -0.289658f, 0.042920f, 0.080878f, -0.234866f, -0.119772f, 0.056785f, 0.207970f, -0.010806f, -0.074325f, -0.026347f, 0.143978f, -0.051561f, -0.084767f, -0.050748f, -0.106290f, 0.002072f, 0.166261f, 0.029738f, -0.013103f, -0.040576f, -0.143645f, 0.092431f, 0.006113f, -0.002250f, 0.311944f, 0.029437f, -0.066023f, -0.033672f, 0.114142f, 0.019692f, -0.152037f, 0.087203f, -0.049746f, 0.188142f, 0.106526f, -0.049739f, 0.136562f, 0.007614f, 0.092252f, 0.051196f, -0.094067f, -0.038784f, 0.069266f, -0.032456f, -0.034553f, -0.075393f, 0.043591f, 0.219064f, -0.101720f, -0.002723f, 0.131571f, -0.003169f, 0.018024f, -0.110598f, 0.044692f, -0.026135f, 0.088423f, 0.109778f, 0.268752f, 0.068751f, 0.028045f, 0.019144f, -0.045384f, 0.021199f, -0.027188f, 0.014904f, 0.140024f, -0.108865f, 0.129870f, 0.136758f, 0.001433f, -0.198437f, -0.069675f, 0.128152f, 0.017803f, -0.089189f, -0.050621f, 0.097239f, 0.043451f, -0.039117f, -0.031117f, -0.036015f, -0.096249f, 0.164152f, -0.023043f, 0.124554f, 0.160454f, 0.104381f, -0.048735f, 0.054531f, -0.010432f, -0.102896f, 0.036674f, -0.096037f, 0.118514f, -0.040879f, 0.012211f, 0.027979f, -0.036104f, 0.075074f, -0.053085f, 0.085865f, -0.133393f, -0.004763f, 0.195671f, -0.110470f, -0.050492f, 0.062192f, 0.013125f, 0.031759f, 0.041243f, 0.049882f, 0.112571f, 0.042633f, -0.023523f, 0.060606f, 0.206646f, -0.007023f, -0.094738f, 0.125973f, -0.023167f, -0.214042f, 0.099771f, -0.031884f, -0.009077f, 0.040789f, 0.006378f, 0.056162f, -0.042770f, 0.061611f, -0.037774f, 0.075048f, 0.055147f, -0.089488f, 0.111245f, -0.037048f, 0.064198f, 0.041981f, 0.142036f, -0.069587f, -0.029664f, 0.035627f, -0.062752f, 0.093679f, -0.165276f, -0.098369f, -0.120034f, 0.106085f, 0.209121f, -0.017380f, 0.007694f, -0.050536f, 0.134752f, -0.106054f, 0.033555f, 0.110939f, 0.044895f, 0.012080f, 0.094374f, -0.286167f, 0.072159f, -0.063221f, -0.169760f, 0.042714f, 0.137996f, -0.007336f, 0.097199f, 0.180143f, 0.126894f, 0.154409f, 0.096135f, 0.053916f, -0.161820f, -0.041286f, -0.066411f, 0.197533f, -0.014859f, 0.010373f, 0.044836f, 0.011337f, 0.122606f, -0.055386f, 0.011265f, -0.027535f, -0.164251f, -0.063139f, -0.037137f, -0.033376f, -0.066952f, -0.136567f, -0.001240f, -0.142423f, 0.069338f, -0.000776f, -0.152607f, -0.016053f, -0.109591f, 0.030242f, 0.142169f, -0.181829f, -0.009187f, -0.037014f, 0.103551f, 0.036912f, -0.080750f, -0.043978f, -0.081068f, 0.084808f, 0.007036f, 0.191693f, -0.001799f, -0.078906f, -0.136442f, -0.171800f, -0.173793f, 0.049411f, 0.043320f, -0.168254f, 0.121724f, -0.038722f, 0.014442f, 0.170091f, 0.075329f, -0.050443f, -0.099371f, -0.202610f, -0.077036f, -0.019236f, -0.086439f, -0.006534f, -0.001537f, -0.013376f, -0.064818f, 0.017822f, 0.012504f, -0.101996f, 0.142244f, -0.002848f, -0.001171f, 0.072083f, 0.014731f, 0.095648f, 0.032657f, -0.045361f, 0.001980f, -0.115063f, 0.023087f, -0.001083f, -0.034539f, -0.032823f, -0.135092f, -0.041481f, 0.003775f, 0.006262f, -0.105392f, 0.103518f, -0.079858f, 0.097767f, 0.045961f, -0.073085f, 0.207593f, -0.110424f, 0.066481f, 0.120145f, -0.069842f, 0.134085f, 0.018257f, 0.035305f, 0.026506f, 0.002094f, 0.068812f, 0.054091f, -0.185383f, 0.138501f, -0.178243f, 0.102493f, 0.139427f, -0.102048f, -0.060452f, -0.103192f, -0.018961f, -0.028092f, 0.059659f, 0.133050f, 0.141015f, -0.047282f, -0.025903f, -0.171676f, -0.087452f, 0.098861f, 0.161245f, -0.105316f, -0.076030f, -0.002699f, 0.035831f, -0.080435f, 0.035291f, -0.054783f, -0.006512f, 0.079279f, -0.004276f, -0.054761f, -0.015195f, -0.031093f, -0.006654f, -0.027893f, 0.211077f, 0.033114f, -0.063181f, 0.073155f, -0.023249f, 0.142720f, 0.050298f, -0.012535f, 0.066425f, -0.144303f, -0.110630f, -0.109153f, 0.000986f, 0.150773f, 0.231818f, 0.066960f, 0.060026f, -0.188104f, -0.045210f, -0.074245f, -0.074311f, -0.004283f, -0.040931f, -0.188699f, 0.070093f, -0.098166f, 0.026074f, 0.214723f, -0.096929f, -0.258207f, -0.039018f, 0.117043f, 0.187192f, -0.106352f, 0.033526f, -0.044318f, -0.010943f, 0.274335f, -0.164023f, 0.009573f, 0.068691f, 0.126976f, 0.005804f, 0.021362f, -0.041857f, 0.008793f, -0.002527f, 0.056984f, -0.012887f, 0.021402f, 0.004300f, 0.117943f, -0.014580f, -0.157658f, 0.133346f, -0.091338f, -0.051359f, -0.047663f, 0.141325f, -0.199215f, 0.301190f, 0.091569f, 0.047739f, -0.007179f, 0.035210f, 0.039860f, 0.077000f, 0.057689f, 0.000355f, -0.010711f, -0.008308f, -0.004517f, 0.119251f, 0.072223f, -0.292505f, 0.074279f, 0.014284f, -0.013842f, -0.066037f, 0.123526f, 0.084935f, -0.059629f, 0.021051f, -0.091990f, -0.144006f, -0.044480f, 0.071576f, 0.073902f, 0.075028f, 0.092325f, 0.047046f, -0.077259f, 0.043146f, 0.064271f, 0.104328f, 0.113934f, 0.093515f, 0.011969f, 0.107492f, 0.001758f, -0.095314f, 0.004330f, -0.073529f, -0.067474f, 0.001320f, -0.064568f, -0.027227f, -0.177729f, 0.011010f, -0.007684f, -0.054385f, 0.063576f, 0.098685f, -0.178212f, -0.064838f, -0.075956f, -0.095396f, 0.090250f, -0.018061f, -0.006563f, -0.196826f, 0.073006f, -0.123050f, 0.020018f, 0.021370f, 0.127301f, -0.159669f, -0.288948f, 0.005997f, 0.198685f, 0.101921f, 0.024955f, -0.048532f, 0.094072f, -0.115788f, 0.028263f, 0.076211f, 0.121122f, 0.271247f, 0.026854f, -0.049587f, -0.011686f, -0.145540f, -0.074095f, -0.020958f, -0.078018f, 0.022690f, -0.078571f, 0.107013f, 0.013120f, -0.001172f, -0.029620f, 0.035057f, 0.087460f, -0.083401f, -0.048604f, -0.040345f, -0.141920f, -0.065607f, -0.048675f, 0.082375f, 0.005228f, 0.043830f, 0.085947f, -0.017652f, 0.036216f, -0.009637f, 0.047969f, -0.045682f, -0.234543f, -0.013622f, 0.157174f, 0.088449f, 0.087813f, 0.094559f, 0.022443f, 0.004955f, -0.042165f, -0.046019f, 0.067086f, 0.117038f, 0.001633f, -0.065639f, -0.015818f, 0.085118f, -0.132216f, -0.233809f, -0.066702f, -0.120641f, -0.056545f, 0.018967f, -0.050234f, 0.160213f, 0.007724f, 0.038018f, 0.064066f, -0.118427f, 0.112130f, -0.010188f, 0.071940f, -0.085492f, -0.148581f, 0.084165f, 0.055130f, -0.099877f, -0.096106f, 0.123816f, -0.117536f, 0.157785f, -0.112305f, 0.085626f, -0.032093f, 0.053555f, -0.058380f, -0.019233f, 0.030691f, -0.087155f, 0.078305f, -0.051143f, -0.007827f, -0.113726f, -0.274904f, -0.055677f, 0.254719f, 0.063307f, 0.017471f, -0.029767f, 0.008937f, 0.049609f, -0.102391f, 0.090932f, 0.053499f, 0.110089f, 0.051150f, -0.002257f, 0.054737f, 0.052043f, -0.058346f, -0.044403f, 0.006337f, 0.172158f, -0.151234f, -0.124154f, 0.021072f, -0.015531f, 0.023965f, 0.026726f, -0.012504f, 0.163718f, -0.158307f, -0.080308f, 0.010419f, -0.166578f, -0.007162f, 0.197883f, 0.000330f, 0.018246f, -0.157145f, -0.039824f, -0.039289f, -0.030150f, 0.119925f, 0.046907f, -0.083243f, 0.037870f, 0.038782f, 0.114775f, 0.183029f, -0.106204f, -0.094684f, -0.149318f, -0.008756f, 0.030222f, 0.126631f, -0.000981f, -0.028826f, 0.020355f, -0.079607f, 0.191601f, -0.178626f, 0.051419f, 0.214446f, -0.003856f, -0.031969f, -0.030251f, -0.024590f, 0.172496f, -0.229225f, 0.171845f, -0.173019f, -0.015767f, -0.040393f, 0.044670f, -0.151844f, 0.044036f, 0.218247f, -0.137187f, 0.023198f, -0.063158f, 0.057422f, -0.007402f, -0.046104f, 0.075611f, 0.174614f, -0.023655f, 0.025200f, -0.107774f, -0.096308f, 0.046131f, 0.140526f, 0.025691f, -0.007520f, -0.015876f, -0.124440f, 0.059280f, 0.100559f, -0.046378f, -0.042327f, 0.009851f, -0.037601f, -0.016185f, 0.239639f, -0.035154f, -0.032684f, -0.051271f, 0.086818f, -0.049544f, -0.085672f, 0.166000f, 0.155510f, -0.064331f, -0.199602f, 0.103517f, -0.080499f, 0.101234f, -0.199803f, 0.107309f, -0.151287f, 0.076140f, 0.005115f, -0.114422f, -0.029546f, 0.064380f, 0.028205f, 0.065404f, 0.186854f, -0.153399f, 0.183217f, 0.001921f, -0.082060f, -0.115868f, -0.022171f, 0.089668f, -0.061252f, 0.186234f, -0.146563f, -0.000017f, -0.146331f, 0.029230f, 0.102399f, -0.057762f, -0.265066f, 0.016130f, 0.053396f, 0.038005f, 0.126890f, -0.137617f, 0.076525f, 0.109284f, -0.140176f, 0.027145f, -0.046366f, 0.004563f, 0.041489f, -0.090408f, -0.084616f, 0.032883f, -0.098098f, -0.112405f, 0.058878f, -0.109785f, 0.064971f, 0.077262f, -0.176112f, -0.050708f, 0.083084f, -0.095180f, -0.042799f, 0.035204f, 0.086877f, -0.023949f, -0.042174f, 0.153450f, 0.157488f, 0.099706f, 0.032555f, -0.090170f, -0.068758f, 0.060974f, 0.042663f, 0.131812f, 0.010595f, -0.109576f, 0.105426f, -0.095905f, -0.062647f, 0.017182f, 0.212827f, 0.291664f, 0.045056f, -0.021376f, 0.066026f, 0.085013f, -0.029581f, 0.159451f, 0.027185f, 0.041197f, 0.107900f, 0.053560f, 0.085505f, -0.047226f, -0.062350f, -0.145525f, 0.024310f, 0.099806f, 0.052656f, 0.164840f, -0.010134f, 0.071999f, -0.106657f, 0.013189f, 0.062661f, 0.105259f, -0.068569f, -0.000666f, -0.150272f, -0.045979f, 0.092995f, 0.065245f, 0.064620f, 0.006255f, -0.021280f, -0.063490f, 0.094969f, 0.032288f, 0.068313f, -0.019904f, -0.219861f, 0.108103f, -0.105840f, -0.042145f, 0.066897f, -0.034258f, 0.076402f, 0.063133f, 0.079555f, -0.171579f, 0.102084f, 0.024935f, -0.020545f, 0.009602f, -0.173873f, 0.027836f, -0.101718f, -0.139602f, -0.115272f, 0.117099f, -0.064853f, 0.174017f, -0.070195f, -0.198998f, -0.127637f, 0.135556f, -0.004605f, -0.058770f, 0.004630f, 0.055687f, 0.116891f, 0.178429f, -0.041192f, -0.107173f, -0.081434f, 0.019346f, -0.093162f, -0.097421f, 0.044675f, -0.000244f, 0.020507f, -0.089604f, -0.051716f, -0.090028f, 0.111631f, 0.094008f, -0.156179f, -0.053818f, -0.154714f, -0.066619f, -0.066996f, -0.103371f, -0.096077f, -0.085947f, -0.014806f, 0.010295f, -0.061910f, -0.020921f, -0.065962f, -0.029821f, 0.178895f, 0.134040f, -0.125206f, 0.067917f, 0.079087f, -0.114830f, 0.114690f, 0.147699f, -0.113772f, -0.068777f, 0.089387f, -0.003949f, 0.037661f, 0.037074f, 0.050460f, -0.136186f, 0.093864f, 0.119830f, -0.013624f, 0.024234f, -0.155243f, 0.076578f, 0.020971f, -0.022583f, 0.114957f, -0.032008f, 0.065631f, -0.095795f, 0.017474f, -0.026786f, -0.014019f, -0.035667f, 0.012831f, 0.070217f, -0.011976f, -0.137180f, 0.173723f, 0.129938f, -0.187265f, 0.118073f, -0.054677f, 0.044779f, -0.017704f, -0.019489f, -0.068694f, -0.105562f, -0.104406f, -0.086626f, 0.003735f, -0.070868f, 0.070564f, 0.147261f, -0.062556f, 0.032769f, 0.082253f, 0.043427f, 0.005650f, 0.096702f, 0.035461f, -0.146053f, 0.068045f, 0.102449f, -0.066031f, -0.000777f, 0.056929f, -0.016139f, 0.109008f, 0.257324f, -0.081761f, -0.111039f, -0.003612f, 0.059307f, -0.020236f, 0.143819f, -0.123823f, 0.075389f, -0.041546f, 0.167123f, 0.155799f, -0.076280f, -0.029750f, 0.078036f, -0.011650f, 0.019456f, -0.003048f, -0.195794f, -0.057893f, -0.013608f, -0.054635f, 0.163633f, -0.177852f, 0.088507f, -0.020753f, -0.054935f, 0.067243f, 0.031325f, 0.066028f, 0.097360f, -0.031564f, -0.065602f, -0.112011f, -0.078227f, 0.327805f, 0.125935f, -0.137414f, -0.115035f, 0.034938f, 0.031535f, 0.038978f, -0.024429f, -0.007800f, 0.031551f, -0.004715f, -0.213375f, -0.002965f, -0.034337f, 0.010887f, 0.316094f, -0.003269f, -0.036443f, 0.090395f, 0.055421f, 0.042654f, 0.061435f, 0.223098f, -0.123078f, 0.014628f, -0.092201f, 0.074187f, -0.097923f, -0.019130f, -0.005504f, 0.087515f, 0.089131f, -0.182795f, 0.049432f, -0.077303f, -0.103954f, -0.068516f, -0.023518f, 0.257095f, 0.018394f, -0.150582f, -0.058082f, 0.113104f, 0.213011f, -0.157585f, -0.190949f, 0.182261f, 0.039227f, -0.056510f, 0.048952f, -0.266353f, 0.019920f, 0.019185f, 0.070962f, -0.119180f, 0.036346f, -0.074275f, 0.021199f, -0.102706f, -0.037227f, -0.110564f, 0.068733f, 0.080482f, 0.002976f, -0.026381f, -0.150984f, -0.025727f, -0.011314f, 0.279421f, -0.108928f, 0.163687f, 0.106410f, -0.002337f, 0.174684f, 0.054274f, 0.031698f, 0.004334f, 0.124989f, 0.101616f, -0.066031f, -0.182912f, 0.030785f, -0.084431f, 0.006832f, 0.080793f, -0.045672f, 0.006011f, -0.011389f, 0.075108f, -0.226372f, -0.052307f, 0.024889f, 0.119509f, -0.048922f, -0.192490f, 0.057239f, -0.033817f, -0.118265f, -0.063636f, -0.002986f, -0.069939f, -0.242761f, 0.073353f, 0.123254f, 0.072009f, -0.113954f, -0.031307f, 0.004165f, 0.073743f, 0.096500f, -0.077179f, 0.028211f, 0.019901f, 0.139261f, 0.069756f, 0.086429f, 0.013764f, 0.142080f, 0.064912f, -0.098730f, 0.105935f, 0.069467f, -0.028118f, -0.052782f, 0.042734f, 0.052172f, 0.012184f, 0.030794f, 0.126440f, 0.152291f, 0.012259f, 0.113584f, -0.148736f, 0.040540f, 0.187701f, -0.031739f, -0.092456f, -0.067155f, -0.103899f, -0.072966f, -0.036817f, -0.133814f, -0.003913f, 0.082573f, -0.069853f, 0.154557f, 0.050525f, 0.116796f, -0.074916f, 0.071755f, -0.121974f, 0.088711f, 0.023083f, 0.055030f, -0.126499f, -0.086372f, 0.066814f, -0.074820f, 0.042621f, -0.117068f, 0.063059f, -0.123622f, 0.054833f, 0.067754f, -0.064708f, 0.061926f, 0.053763f, -0.070956f, -0.145747f, -0.196051f, 0.053827f, -0.161545f, 0.024002f, -0.026465f, 0.060871f, -0.033605f, -0.073563f, 0.129208f, 0.025732f, 0.051562f, -0.007794f, -0.146930f, 0.085369f, 0.050499f, -0.120807f, -0.025259f, 0.003840f, -0.009040f, 0.034464f, 0.150196f, 0.101304f, -0.138512f, 0.072771f, 0.146941f, 0.037288f, 0.121819f, 0.182247f, 0.093428f, 0.011659f, 0.117084f, 0.025916f, 0.000493f, -0.044945f, 0.160388f, -0.088854f, 0.159716f, 0.046373f, -0.114722f, 0.018140f, -0.216859f, 0.064417f, 0.086917f, -0.045838f, 0.018241f, 0.216822f, -0.068172f, -0.147474f, 0.147428f, 0.210235f, -0.002383f, 0.110707f, 0.143333f, -0.083781f, -0.051547f, 0.085425f, 0.217987f, 0.049586f, -0.065092f, 0.152426f, -0.040029f, -0.029621f, 0.031239f, 0.142552f, 0.083684f, 0.049475f, 0.049738f, 0.003508f, 0.058660f, -0.256983f, -0.040502f, 0.034390f, -0.103282f, 0.038005f, -0.011325f, 0.159696f, 0.146598f, -0.054839f, -0.010524f, -0.002838f, -0.044616f, 0.013631f, -0.072373f, -0.116188f, 0.075476f, 0.059306f, -0.062647f, 0.072609f, -0.067537f, 0.024773f, 0.083846f, 0.003539f, 0.053065f, -0.027078f, -0.053424f, -0.068598f, -0.074360f, -0.004088f, -0.155523f, -0.034537f, -0.018859f, -0.035368f, -0.026170f, -0.042449f, 0.094477f, 0.078606f, -0.037620f, -0.171062f, -0.088864f, -0.039001f, -0.040362f, -0.097563f, -0.130921f, -0.034661f, 0.020024f, 0.062097f, -0.049480f, -0.044159f, -0.102108f, 0.001125f, -0.065924f, 0.055370f, -0.169543f, -0.059391f, 0.025687f, 0.012716f, 0.275114f, 0.041010f, -0.098977f, -0.014389f, -0.173246f, -0.008961f, -0.070909f, 0.090451f, -0.040788f, -0.024767f, -0.071550f, 0.173380f, -0.030850f, 0.191645f, 0.086028f, 0.068314f, 0.010083f, -0.005475f, -0.190955f, -0.012006f, 0.082178f, 0.007659f, -0.134982f, -0.012600f, 0.165532f, 0.093202f, 0.037530f, 0.087205f, -0.010402f, -0.218994f, -0.077253f, 0.159547f, -0.023977f, -0.044031f, -0.032951f, 0.198761f, 0.161675f, 0.217429f, -0.018987f, 0.027130f, -0.153000f, 0.151722f, -0.095069f, 0.021923f, -0.101067f, -0.077473f, -0.086826f, -0.063780f, -0.059728f, -0.052525f, 0.085374f, -0.112014f, 0.025760f, 0.129064f, -0.037393f, -0.068351f, -0.011909f, 0.115374f, 0.004650f, -0.055176f, 0.054415f, -0.107685f, 0.070318f, 0.062586f, -0.057117f, -0.133206f, -0.088115f, 0.070639f, 0.121597f, -0.047878f, 0.051628f, -0.213852f, -0.063728f, -0.025976f, -0.043288f, -0.102902f, -0.042305f, -0.026366f, -0.005916f, -0.225668f, -0.214954f, -0.081625f, 0.043212f, -0.265874f, -0.050544f, -0.056231f, 0.140467f, -0.041936f, 0.043110f, 0.008606f, -0.192387f, 0.075430f, 0.031888f, 0.026650f, 0.394340f, -0.210935f, 0.166240f, -0.025497f, 0.030159f, -0.009206f, -0.037836f, -0.044158f, 0.054982f, -0.148889f, 0.082719f, -0.039993f, -0.130315f, -0.047451f, 0.129341f, -0.047436f, 0.034202f, -0.053356f, 0.048354f, 0.028770f, 0.183094f, -0.007694f, 0.067402f, 0.027654f, 0.141951f, -0.076886f, 0.073013f, -0.029592f, 0.027923f, 0.001427f, 0.048144f, -0.054039f, 0.026966f, 0.163783f, 0.099918f, 0.061451f, -0.048320f, -0.076799f, 0.093692f, 0.083847f, 0.151644f, -0.062977f, -0.020476f, -0.179627f, -0.009316f, 0.096319f, -0.038034f, 0.028426f, -0.011939f, 0.029846f, -0.121565f, 0.016888f, -0.298573f, -0.025706f, -0.159383f, 0.127127f, 0.090215f, 0.049261f, 0.163383f, -0.087355f, 0.151314f, 0.092625f, -0.020892f, 0.127655f, -0.114448f, -0.072579f, -0.106356f, -0.079953f, -0.108887f, 0.122579f, -0.023444f, 0.054522f, -0.044629f, -0.189404f, 0.038134f, -0.192601f, 0.005101f, -0.145109f, 0.227959f, 0.062991f, 0.002463f, 0.128678f, -0.073957f, 0.034051f, 0.015268f, 0.033534f, 0.122935f, 0.065999f, 0.033230f, -0.164818f, -0.091017f, -0.029180f, 0.040124f, -0.115250f, 0.244087f, 0.118360f, 0.068488f, 0.002226f, -0.025664f, -0.091824f, 0.008351f, 0.019018f, -0.119708f, 0.040127f, -0.006005f, -0.189596f, -0.079788f, -0.031278f, 0.180240f, 0.055109f, -0.130046f, 0.059977f, -0.161587f, 0.119853f, -0.094456f, -0.052387f, 0.129465f, -0.122037f, -0.136559f, -0.042191f, 0.109075f, -0.162944f, -0.281126f, -0.037502f, 0.092612f, 0.111076f, -0.016646f, -0.081472f, 0.107039f, -0.180554f, -0.039114f, -0.002244f, 0.043124f, -0.038248f, -0.000245f, -0.250221f, -0.058182f, 0.041785f, -0.093912f, -0.015370f, 0.071719f, -0.037863f, 0.025072f, -0.130740f, -0.007137f, 0.055567f, 0.014070f, -0.052411f, 0.022609f, 0.061351f, -0.199241f, 0.118076f, -0.026154f, 0.042061f, 0.127548f, -0.127227f, -0.079669f, -0.028760f, -0.077082f, 0.189850f, -0.093458f, -0.047098f, -0.012939f, -0.149903f, -0.044940f, 0.026036f, -0.028720f, -0.004680f, -0.050836f, -0.159767f, 0.039486f, 0.189811f, 0.033586f, 0.017726f, 0.091978f, -0.147604f, 0.163278f, 0.030839f, 0.163650f, -0.092854f, 0.179519f, 0.089344f, 0.055265f, 0.027929f, -0.007757f, 0.115675f, 0.012763f, -0.222739f, -0.084655f, -0.022417f, 0.037693f, -0.041412f, 0.135238f, -0.198315f, 0.010883f, -0.172145f, 0.075561f, -0.021411f, 0.049005f, -0.090043f, 0.137537f, 0.100568f, 0.073613f, -0.004819f, 0.045044f, -0.069968f, 0.088920f, 0.187773f, 0.104535f, -0.065777f, -0.003649f, -0.150839f, 0.051865f, 0.032637f, -0.178193f, -0.114938f, -0.015788f, -0.041403f, -0.106604f, 0.051600f, 0.044178f, -0.022938f, -0.050596f, 0.097475f, 0.169519f, -0.044166f, -0.054647f, 0.031863f, -0.044176f, -0.008666f, 0.073296f, -0.188732f, 0.146236f, 0.006423f, -0.037325f, -0.010227f, 0.026394f, -0.175183f, 0.153461f, -0.027043f, 0.041336f, 0.095025f, -0.100428f, 0.054395f, -0.024462f, 0.075650f, -0.207091f, -0.018793f, -0.049544f, 0.038718f, 0.055135f, -0.073753f, -0.077366f, -0.009946f, -0.091095f, 0.105063f, -0.028836f, -0.279857f, -0.071441f, -0.127623f, -0.165154f, -0.133256f, 0.019649f, 0.132431f, 0.047427f, -0.072777f, 0.054041f, -0.047855f, -0.046330f, -0.118224f, -0.155833f, -0.048309f, 0.037183f, -0.006831f, -0.045321f, -0.112240f, 0.055599f, -0.130121f, 0.074274f, -0.096934f, -0.058766f, -0.148128f, -0.044648f, 0.076841f, 0.078371f, 0.094497f, 0.061311f, -0.142065f, -0.014280f, -0.082356f, 0.134118f, -0.115419f, 0.090227f, 0.080968f, 0.187574f, -0.050745f, 0.079820f, 0.224683f, -0.049788f, -0.148034f, -0.190995f, 0.072206f, -0.191100f, -0.020086f, 0.046588f, 0.021156f, 0.021384f, -0.003202f, 0.122531f, -0.104935f, -0.062324f, -0.082850f, 0.089963f, 0.082529f, 0.057391f, 0.129864f, -0.088407f, 0.164858f, 0.164016f, 0.060234f, 0.188965f, -0.155113f, -0.059257f, -0.089562f, 0.070001f, -0.103488f, 0.069189f, 0.138747f, 0.080345f, 0.028004f, -0.095548f, -0.098701f, 0.144353f, 0.078249f, 0.005410f, -0.054684f, -0.181515f, -0.108028f, 0.191613f, -0.120904f, 0.019773f, 0.094478f, -0.120653f, 0.009551f, 0.098911f, 0.000279f, 0.298477f, -0.155951f, 0.097193f, -0.015683f, 0.076386f, 0.065793f, -0.076028f, 0.021655f, -0.202319f, 0.040294f, 0.024080f, 0.048722f, 0.110554f, 0.027568f, 0.010967f, -0.092437f, -0.055030f, 0.150412f, 0.164957f, -0.020166f, 0.014228f, -0.078987f, 0.123704f, 0.078101f, 0.192001f, -0.109683f, -0.040761f, 0.027250f, 0.056403f, -0.023255f, -0.080412f, 0.086977f, 0.075119f, -0.103132f, 0.165988f, 0.115266f, 0.021085f, -0.016689f, 0.077520f, -0.085654f, 0.001578f, -0.208533f, 0.087815f, -0.160577f, 0.157910f, -0.036546f, -0.013216f, -0.062802f, -0.022145f, 0.151135f, -0.260472f, 0.128153f, 0.034537f, -0.104582f, -0.113282f, 0.161969f, -0.105319f, -0.132767f, 0.106356f, 0.023211f, -0.087812f, 0.010625f, -0.106292f, 0.108350f, 0.122490f, 0.075284f, 0.053906f, 0.174602f, 0.007966f, -0.128111f, 0.049703f, 0.219618f, -0.101878f, -0.050490f, 0.038299f, -0.005068f, -0.098521f, 0.115738f, 0.252523f, 0.012002f, -0.084767f, -0.172134f, 0.046244f, 0.108872f, 0.057654f, -0.020223f, -0.038720f, -0.102130f, 0.070490f, 0.100998f, -0.154517f, 0.155870f, 0.067679f, 0.142118f, -0.126855f, -0.136742f, -0.004762f, 0.060596f, 0.150912f, 0.071469f, -0.015760f, -0.081283f, 0.118677f, -0.095625f, 0.145229f, -0.044666f, 0.151710f, 0.060638f, -0.001235f, -0.049682f, -0.020572f, 0.036377f, 0.022420f, -0.042952f, -0.005226f, 0.004583f, -0.201025f, 0.031593f, -0.091940f, -0.107588f, -0.152491f, -0.202627f, -0.138777f, -0.063537f, 0.190937f, -0.054838f, 0.029046f, 0.035000f, 0.008899f, -0.024459f, -0.079176f, 0.144015f, 0.185540f, -0.198297f, -0.081410f, -0.018343f, -0.102604f, 0.055498f, -0.072497f, 0.214109f, 0.129668f, 0.025219f, 0.111227f, 0.110536f, -0.055696f, -0.073086f, -0.008748f, 0.086588f, 0.019394f, -0.141654f, -0.084576f, -0.010012f, -0.021767f, 0.184895f, -0.146612f, 0.038817f, 0.162292f, 0.223715f, -0.031199f, 0.042910f, 0.070227f, 0.039129f, -0.000114f, 0.041172f, -0.241155f, 0.058458f, 0.020727f, -0.024717f, 0.226409f, -0.081061f, -0.044694f, 0.203068f, -0.086324f, -0.064994f, -0.011129f, 0.081031f, 0.018977f, -0.141780f, -0.020404f, -0.060342f, -0.008842f, 0.021121f, 0.052139f, -0.167235f, 0.100111f, 0.020302f, 0.139391f, 0.041744f, 0.121456f, 0.057297f, 0.146480f, 0.050853f, -0.015821f, 0.232087f, 0.088083f, 0.056209f, -0.121119f, -0.122428f, 0.027897f, 0.018320f, -0.100845f, -0.011181f, 0.153293f, 0.056850f, -0.102198f, -0.006563f, -0.068045f, -0.049299f, -0.024561f, -0.038414f, -0.109912f, -0.018438f, -0.035139f, -0.315363f, 0.224528f, 0.108076f, -0.023318f, -0.012176f, -0.121284f, 0.171725f, 0.188751f, 0.010254f, 0.118292f, 0.010671f, -0.131470f, -0.063783f, 0.045777f, -0.046367f, -0.013710f, -0.032398f, 0.006835f, 0.009110f, -0.124061f, -0.072509f, -0.126946f, 0.089064f, -0.200409f, 0.125397f, 0.148796f, -0.028728f, -0.256745f, -0.029315f, -0.022790f, -0.101291f, -0.045150f, 0.166522f, 0.067432f, -0.098552f, -0.196429f, -0.056622f, -0.025421f, 0.031736f, -0.041185f, 0.061339f, 0.213408f, 0.073074f, 0.013200f, -0.016405f, -0.018728f, 0.113797f, -0.044788f, -0.013102f, 0.029285f, -0.047254f, -0.120998f, 0.020247f, -0.010270f, 0.045768f, -0.053136f, 0.118192f, -0.073173f, 0.164268f, -0.170228f, 0.012649f, 0.078969f, -0.080176f, 0.046949f, 0.109409f, -0.208390f, 0.048708f, -0.261701f, -0.096480f, 0.164238f, -0.069400f, -0.109769f, -0.009656f, 0.214292f, -0.178793f, -0.099693f, 0.161196f, 0.170668f, -0.009339f, -0.122264f, 0.225581f, 0.159545f, 0.051550f, -0.103534f, -0.025124f, -0.019771f, 0.011092f, 0.153710f, 0.093709f, -0.093032f, 0.134553f, 0.051470f, 0.070345f, 0.164457f, -0.111837f, 0.003649f, -0.062014f, -0.126238f, 0.033546f, 0.259367f, -0.193920f, -0.008115f, 0.061625f, 0.010882f, -0.012703f, -0.107214f, 0.017205f, -0.067873f, -0.254200f, 0.146837f, 0.095137f, 0.015388f, 0.007836f, 0.125375f, 0.021551f, 0.055514f, -0.022688f, 0.132301f, 0.018021f, 0.027762f, -0.114758f, 0.032285f, -0.077396f, -0.043602f, -0.065807f, -0.151023f, 0.212420f, 0.143577f, 0.213656f, -0.121278f, -0.017841f, -0.153332f, -0.085721f, -0.095051f, 0.097834f, -0.030214f, 0.113909f, 0.068495f, 0.227922f, -0.123420f, 0.129839f, 0.125398f, -0.097679f, 0.104935f, 0.027321f, 0.004878f, -0.085457f, -0.065997f, 0.191775f, -0.003039f, 0.081662f, -0.078124f, -0.073104f, 0.138873f, -0.145749f, -0.038197f, -0.042159f, 0.043317f, -0.020153f, 0.048176f, 0.046509f, 0.098024f, -0.102467f, -0.051828f, 0.122105f, 0.089965f, -0.147993f, 0.043259f, -0.188941f, 0.009423f, 0.193504f, -0.084224f, -0.070409f, 0.056368f, -0.155108f, -0.056094f, 0.070652f, -0.059381f, -0.049354f, 0.040811f, 0.023157f, 0.018166f, -0.055038f, 0.045823f, -0.004765f, 0.048976f, -0.054574f, 0.016608f, -0.074515f, 0.010030f, -0.084098f, -0.103209f, 0.007410f, 0.031827f, 0.070247f, -0.035249f, 0.024036f, 0.050862f, 0.044564f, -0.081019f, 0.018335f, 0.063036f, -0.009778f, -0.207708f, -0.016704f, 0.262087f, -0.037755f, -0.069531f, 0.015318f, 0.045692f, 0.121063f, -0.159570f, 0.078632f, 0.059526f, -0.024722f, 0.043340f, 0.113005f, 0.096758f, -0.111906f, 0.096089f, 0.006109f, -0.023580f, 0.005172f, -0.002680f, 0.131106f, -0.006554f, -0.133378f, -0.075792f, 0.003863f, 0.119030f, 0.041305f, -0.077148f, 0.253102f, 0.035758f, 0.120308f, 0.015848f, 0.052444f, 0.090958f, 0.117275f, 0.114440f, 0.068526f, 0.000957f, -0.060521f, 0.029918f, 0.082685f, -0.027175f, 0.107721f, 0.145637f, -0.092340f, -0.064486f, -0.024434f, 0.040355f, -0.076168f, 0.158811f, 0.041285f, 0.011124f, -0.156657f, -0.124621f, 0.032397f, -0.250603f, 0.098602f, -0.014161f, 0.317775f, 0.239612f, -0.002485f, 0.006390f, 0.101416f, 0.174100f, -0.149190f, -0.196550f, -0.065851f, 0.072329f, 0.052548f, 0.106547f, -0.137879f, -0.273530f, 0.063711f, -0.086711f, -0.218618f, 0.022196f, 0.080488f, 0.003308f, -0.055516f, 0.011847f, -0.031922f, -0.116908f, -0.077333f, 0.065142f, 0.006182f, 0.047667f, -0.095784f, -0.011013f, -0.227099f, 0.012760f, 0.145751f, -0.144549f, -0.086525f, 0.027225f, 0.115430f, -0.037942f, -0.054364f, -0.173751f, 0.009691f, 0.212007f, 0.017800f, -0.002014f, 0.041103f, -0.035703f, -0.085482f, 0.085022f, 0.021107f, 0.009737f, -0.077035f, 0.156646f, 0.067885f, -0.056961f, 0.105657f, -0.062979f, -0.082108f, -0.062526f, -0.177404f, 0.049643f, -0.195399f, -0.164205f, -0.232980f, -0.011513f, -0.026866f, -0.029906f, -0.067218f, -0.069682f, 0.035895f, -0.031765f, -0.009009f, -0.068473f, 0.010733f, 0.146260f, 0.026794f, -0.014176f, 0.040006f, -0.011191f, -0.008784f, -0.035933f, -0.003545f, 0.018856f, -0.114150f, -0.099939f, -0.147106f, -0.160678f, -0.124321f, 0.037938f, -0.088679f, 0.057303f, -0.003392f, -0.199701f, 0.080832f, 0.039527f, -0.100475f, 0.045273f, -0.084303f, 0.018996f, -0.107508f, -0.158023f, -0.035354f, -0.010014f, -0.026021f, -0.148756f, -0.044395f, 0.046043f, -0.002891f, 0.022196f, -0.076312f, 0.091333f, -0.143282f, 0.047651f, 0.112216f, 0.051857f, -0.008060f, -0.032189f, 0.096841f, -0.129357f, -0.103729f, -0.016399f, 0.117635f, 0.050994f, -0.129404f, -0.004158f, -0.044294f, -0.052295f, 0.092397f, -0.139801f, 0.172946f, 0.081566f, 0.091203f, -0.043146f, -0.022243f, -0.147058f, -0.061246f, 0.068490f, 0.129757f, -0.107557f, -0.041255f, -0.012667f, -0.126956f, 0.036276f, -0.076000f, -0.015710f, -0.040712f, -0.070855f, 0.018633f, 0.000200f, -0.031899f, -0.082286f, 0.044525f, 0.149633f, 0.010831f, 0.111540f, -0.140528f, 0.020091f, -0.123393f, -0.167144f, -0.098853f, 0.119680f, 0.092676f, 0.026893f, -0.147614f, -0.004542f, 0.025274f, 0.023842f, -0.183275f, -0.065977f, -0.011719f, 0.063969f, -0.253100f, 0.018850f, 0.032322f, 0.100367f, 0.063045f, 0.057498f, -0.066388f, -0.194128f, -0.059077f, 0.099199f, 0.134669f, 0.066083f, 0.033703f, 0.058593f, -0.056276f, -0.004172f, 0.158227f, -0.083665f, 0.178053f, -0.053827f, 0.131713f, -0.136487f, 0.064541f, -0.063821f, -0.119854f, 0.043928f, 0.105002f, -0.095214f, -0.136072f, -0.028536f, -0.012157f, 0.067937f, 0.094554f, -0.002028f, 0.174525f, 0.004102f, -0.059227f, -0.160038f, -0.023479f, -0.029140f, 0.105372f, 0.061603f, -0.125577f, 0.022028f, 0.074784f, 0.169705f, 0.082245f, 0.088638f, -0.029577f, 0.066256f, 0.139132f, -0.125717f, -0.040011f, -0.077908f, 0.048074f, 0.118727f, -0.075242f, -0.233550f, -0.048614f, 0.089597f, 0.043548f, 0.062830f, -0.029010f, -0.120869f, 0.043256f, -0.076166f, 0.237649f, 0.035494f, -0.056320f, -0.057146f, -0.003250f, -0.013036f, 0.133543f, 0.039125f, -0.069976f, 0.179205f, 0.020089f, 0.052045f, -0.063952f, 0.050105f, 0.034896f, -0.186113f, 0.188255f, 0.109636f, -0.061059f, -0.109067f, 0.034160f, 0.012876f, 0.044933f, 0.035116f, 0.045757f, 0.148792f, 0.071378f, -0.093002f, 0.131949f, 0.174198f, 0.288929f, -0.089666f, 0.081824f, -0.271445f, 0.046029f, -0.055153f, 0.202185f, -0.078025f, -0.178927f, -0.012774f, -0.229452f, 0.076508f, -0.260652f, 0.029448f, -0.221110f, 0.016420f, 0.145919f, 0.045326f, -0.073984f, -0.016752f, 0.005238f, 0.050597f, -0.132666f, 0.069567f, -0.256854f, -0.047518f, -0.044549f, 0.050995f, 0.021891f, -0.157473f, -0.099732f, 0.025936f, -0.001733f, -0.055932f, -0.104267f, 0.121530f, -0.064532f, -0.009141f, 0.212700f, -0.141497f, -0.182378f, 0.064681f, -0.049736f, -0.026345f, -0.024519f, -0.015616f, 0.168179f, 0.047404f, 0.072799f, -0.124599f, -0.103476f, -0.283957f, -0.086318f, 0.095771f, 0.055543f, -0.025913f, -0.012224f, -0.058197f, 0.010015f, 0.079492f, -0.189203f, 0.052165f, 0.090053f, -0.028922f, 0.053848f, 0.288275f, 0.003106f, 0.017178f, -0.067231f, 0.021421f, 0.048229f, 0.030581f, -0.090866f, 0.036393f, 0.149297f, 0.033941f, 0.117165f, -0.044544f, 0.073034f, 0.035339f, -0.086744f, 0.030848f, -0.117384f, -0.072193f, 0.004729f, 0.029503f, -0.122477f, 0.110869f, 0.059422f, -0.067624f, -0.153971f, -0.008800f, -0.019406f, 0.020400f, -0.038032f, -0.198407f, -0.055622f, -0.019461f, 0.067699f, -0.066081f, 0.161628f, -0.189984f, 0.134527f, -0.027793f, 0.082456f, 0.017772f, 0.105273f, -0.036611f, -0.141575f, 0.166088f, -0.014345f, 0.031242f, 0.101946f, -0.092014f, 0.065724f, -0.078767f, -0.005461f, 0.010302f, -0.150061f, -0.069035f, 0.135509f, 0.100289f, -0.000647f, 0.008156f, -0.004406f, 0.118856f, -0.021157f, 0.022953f, 0.123766f, -0.081146f, 0.138858f, -0.174097f, 0.155721f, -0.037998f, -0.032004f, -0.183801f, -0.052404f, -0.098353f, -0.063757f, -0.004653f, 0.122355f, 0.026443f, 0.028669f, -0.104954f, -0.097141f, 0.185703f, -0.067341f, 0.159492f, -0.038619f, 0.001750f, 0.113059f, 0.122492f, -0.001787f, -0.018129f, -0.016354f, 0.035028f, 0.052626f, 0.027421f, 0.057660f, 0.175331f, 0.009514f, 0.045789f, -0.142151f, -0.288889f, 0.045261f, -0.005614f, -0.050173f, 0.032812f, 0.000140f, 0.130485f, 0.014710f, -0.090781f, 0.124296f, -0.041457f, 0.049684f, -0.045400f, -0.058871f, 0.005909f, -0.011939f, 0.032388f, -0.031110f, -0.183818f, -0.049179f, 0.083538f, -0.033778f, -0.020415f, 0.098530f, -0.065999f, -0.129151f, -0.014517f, -0.049657f, -0.092566f, -0.021206f, 0.051473f, -0.001474f, 0.035425f, 0.172656f, -0.033647f, 0.033768f, -0.054682f, -0.078839f, -0.044333f, -0.060310f, 0.035620f, 0.203417f, -0.049971f, -0.043179f, 0.001612f, 0.019045f, 0.033383f, 0.135036f, -0.258902f, -0.231337f, -0.046543f, 0.111782f, -0.150364f, -0.300078f, 0.056946f, 0.033800f, -0.129981f, -0.071173f, -0.115757f, 0.010284f, -0.064315f, 0.055897f, -0.291382f, -0.098925f, -0.133313f, -0.031513f, -0.053476f, 0.076034f, -0.181978f, 0.004113f, 0.065152f, 0.184384f, -0.041690f, 0.054284f, -0.179590f, -0.241111f, 0.088740f, -0.006589f, 0.119461f, -0.136508f, 0.052558f, 0.171079f, 0.043326f, 0.038236f, -0.002462f, -0.152119f, 0.151011f, -0.073072f, 0.049794f, -0.178653f, -0.096778f, 0.140661f, -0.025005f, 0.118783f, 0.001869f, -0.171835f, 0.071346f, -0.051604f, 0.073697f, 0.007437f, -0.147091f, 0.018080f, 0.224174f, 0.055627f, -0.026454f, 0.136408f, 0.002837f, 0.019138f, -0.110190f, 0.028613f, 0.099716f, -0.092560f, 0.125718f, -0.015366f, -0.088016f, 0.101164f, -0.023298f, 0.073037f, -0.026612f, -0.008438f, 0.051534f, 0.059520f, -0.200295f, -0.113852f, 0.099518f, -0.020290f, -0.055112f, -0.141639f, -0.095575f, -0.214448f, -0.010741f, -0.049937f, -0.100265f, -0.009244f, 0.050224f, 0.200029f, -0.153276f, 0.096196f, 0.118470f, -0.078522f, 0.027059f, -0.066323f, 0.027860f, 0.168403f, 0.037058f, 0.054673f, -0.038772f, -0.139466f, -0.014144f, 0.130913f, -0.149606f, -0.099694f, -0.006878f, -0.068823f, -0.098048f, -0.046153f, -0.131946f, -0.098438f, 0.068669f, -0.141694f, -0.175399f, -0.069140f, 0.073402f, -0.015263f, -0.039544f, 0.000498f, -0.174691f, 0.045383f, 0.037587f, -0.004793f, 0.099709f, -0.113993f, 0.118044f, 0.008186f, -0.037323f, -0.010165f, 0.007182f, 0.106974f, -0.107880f, -0.066111f, 0.098067f, -0.060453f, 0.100019f, 0.163745f, -0.040214f, 0.048229f, -0.088626f, 0.075236f, 0.024064f, 0.025350f, -0.054258f, -0.148535f, 0.027519f, -0.204190f, -0.027319f, 0.104792f, 0.026714f, 0.204738f, 0.108797f, -0.061366f, -0.018971f, 0.022376f, -0.173074f, -0.097839f, -0.052036f, -0.208066f, 0.004440f, -0.032154f, -0.189665f, 0.029206f, 0.072290f, 0.030203f, -0.022773f, 0.062625f, 0.073451f, 0.024173f, -0.086303f, 0.059412f, 0.118009f, -0.062687f, 0.216930f, -0.067306f, 0.000751f, -0.080045f, 0.044414f, -0.185305f, -0.055608f, -0.103063f, 0.009594f, 0.096424f, 0.072685f, -0.241342f, 0.205821f, 0.014256f, -0.053873f, 0.016676f, 0.017863f, -0.082327f, 0.024911f, -0.040674f, -0.067105f, -0.063683f, -0.138439f, 0.024135f, 0.065784f, 0.062767f, 0.088625f, 0.034108f, -0.072198f, 0.108183f, -0.156245f, -0.094771f, -0.089062f, 0.105126f, 0.093499f, 0.037318f, 0.093924f, -0.089555f, 0.035427f, -0.007357f, 0.095771f, -0.010317f, -0.035627f, 0.048121f, 0.085482f, -0.035625f, -0.016506f, -0.107649f, -0.246263f, 0.013628f, 0.056102f, 0.011305f, -0.155417f, -0.041426f, -0.222937f, 0.142161f, -0.113476f, 0.115429f, 0.093959f, -0.087020f, -0.112490f, 0.018989f, -0.057863f, 0.013012f, -0.051779f, -0.188653f, -0.216725f, 0.041797f, -0.079160f, -0.049426f, 0.073867f, 0.126139f, -0.019119f, -0.023602f, 0.056782f, -0.136633f, 0.006187f, 0.076348f, 0.046221f, -0.198970f, -0.067843f, -0.090137f, 0.008558f, 0.036980f, 0.133327f, -0.051535f, -0.049138f, 0.119426f, 0.042629f, 0.130572f, 0.037683f, -0.124091f, -0.134609f, -0.128631f, 0.052992f, 0.115688f, 0.192994f, 0.075666f, 0.108856f, -0.078728f, -0.075868f, 0.080026f, 0.040649f, 0.014124f, 0.032730f, 0.021499f, 0.121069f, 0.135363f, 0.054870f, 0.073307f, 0.081474f, -0.042090f, 0.064366f, -0.148790f, 0.114921f, -0.100411f, 0.005988f, -0.078201f, 0.059723f, 0.005233f, -0.153512f, 0.049040f, -0.053756f, 0.086222f, -0.016026f, 0.065372f, -0.111148f, -0.062642f, -0.043454f, 0.086059f, 0.167922f, -0.090036f, 0.090492f, -0.216311f, -0.118265f, -0.093618f, -0.121580f, -0.157492f, 0.052929f, -0.029845f, 0.034413f, 0.091353f, 0.010592f, 0.062538f, -0.000631f, -0.123949f, 0.095327f, -0.085673f, -0.046522f, -0.012159f, -0.092695f, -0.046894f, 0.032422f, 0.022191f, -0.087518f, -0.041378f, 0.113851f, 0.026942f, 0.223541f, 0.123464f, 0.101107f, -0.135757f, 0.078932f, 0.012309f, -0.075504f, 0.023635f, 0.098408f, 0.056644f, -0.082631f, 0.078916f, -0.062961f, 0.019771f, -0.047856f, 0.004325f, 0.061765f, -0.107174f, 0.194458f, -0.180096f, -0.062276f, 0.023550f, 0.047962f, -0.004401f, -0.005695f, 0.038681f, -0.012107f, 0.137141f, 0.086220f, 0.081678f, -0.099749f, 0.018694f, -0.046472f, -0.100835f, 0.034108f, -0.050451f, 0.055503f, -0.135565f, 0.204318f, -0.074649f, 0.021409f, 0.067555f, -0.052790f, 0.081295f, -0.115162f, 0.146631f, 0.009052f, -0.083758f, -0.030066f, 0.086222f, -0.071127f, -0.063357f, -0.027087f, -0.103513f, 0.158339f, -0.046837f, 0.086834f, 0.023029f, -0.092575f, 0.001995f, 0.082234f, -0.022127f, 0.107212f, 0.124225f, 0.073096f, -0.049510f, -0.104584f, -0.056234f, 0.013197f, 0.040683f, -0.231451f, 0.008253f, 0.016757f, -0.033217f, 0.141421f, 0.041353f, 0.138096f, -0.029847f, 0.093195f, 0.181392f, 0.109473f, -0.109932f, -0.025088f, -0.028154f, 0.035282f, 0.041334f, -0.060309f, 0.016816f, -0.202447f, 0.133962f, -0.049599f, 0.005825f, -0.018511f, 0.115073f, -0.276188f, -0.027747f, -0.004759f, -0.041033f, 0.164522f, -0.081817f, 0.080283f, 0.046742f, 0.107442f, -0.061353f, -0.069771f, 0.112264f, 0.045913f, -0.155052f, -0.049894f, 0.035444f, 0.068739f, -0.044741f, -0.298587f, 0.049907f, -0.123324f, -0.199472f, -0.287397f, 0.064841f, -0.000053f, -0.013988f, 0.140122f, 0.058486f, 0.173458f, -0.139923f, 0.008566f, -0.170158f, -0.025474f, -0.006740f, 0.042181f, 0.005030f, 0.059017f, 0.078944f, 0.201891f, -0.054153f, -0.085170f, 0.031112f, -0.079205f, 0.141356f, -0.025498f, -0.049285f, -0.027913f, 0.069749f, -0.009128f, -0.096570f, 0.167191f, -0.083867f, 0.000099f, 0.066358f, -0.160198f, 0.057552f, -0.121570f, 0.083987f, -0.092924f, 0.072037f, 0.114013f, 0.085599f, 0.029954f, -0.026304f, -0.073551f, 0.170227f, -0.074168f, -0.106007f, 0.064891f, -0.080722f, -0.098291f, -0.164821f, -0.051557f, 0.002423f, 0.024962f, 0.088284f, 0.063470f, -0.021976f, -0.008752f, 0.046419f, 0.123980f, 0.029225f, -0.066895f, -0.097094f, -0.152431f, 0.077725f, 0.046908f, 0.037594f, -0.006629f, 0.143804f, -0.048646f, 0.091100f, -0.000561f, -0.051829f, 0.080026f, 0.036563f, 0.043309f, -0.026101f, 0.000213f, 0.239792f, 0.117013f, 0.070776f, 0.011755f, 0.109974f, 0.029704f, 0.003843f, -0.027301f, -0.006100f, -0.313344f, 0.025348f, -0.040335f, 0.156479f, -0.010128f, -0.095200f, -0.013758f, -0.107742f, 0.049798f, 0.027747f, 0.090155f, -0.098759f, -0.007460f, -0.127509f, 0.071653f, 0.047104f, 0.060215f, 0.002928f, 0.055810f, 0.154525f, -0.032443f, 0.029502f, -0.131688f, -0.085181f, 0.005120f, 0.119505f, -0.039173f, -0.037883f, -0.047085f, -0.058732f, 0.029609f, -0.147388f, 0.129804f, -0.058067f, 0.092292f, -0.137592f, 0.070948f, 0.033451f, 0.050268f, -0.100825f, 0.031288f, -0.132477f, -0.023435f, 0.113687f, 0.056410f, 0.003660f, -0.094921f, 0.066957f, 0.005880f, -0.222038f, 0.082856f, -0.004443f, 0.110683f, -0.083596f, -0.330480f, 0.024694f, 0.033983f, -0.170094f, -0.105557f, 0.256019f, -0.027273f, 0.086598f, -0.064119f, -0.212125f, -0.007294f, -0.024986f, -0.037566f, -0.013126f, 0.022130f, -0.003089f, -0.149113f, 0.050645f, -0.205374f, -0.194940f, 0.058819f, 0.039275f, -0.015212f, -0.141790f, -0.071378f, -0.025140f, -0.157379f, -0.065247f, 0.089744f, 0.132842f, -0.036434f, 0.041565f, -0.186058f, 0.062720f, -0.070783f, 0.017402f, -0.025815f, 0.140331f, -0.110703f, 0.067495f, -0.026113f, -0.015761f, -0.013747f, -0.073503f, -0.006061f, -0.008790f, 0.017931f, 0.040178f, 0.063356f, 0.089353f, -0.100844f, 0.088848f, -0.130203f, 0.040424f, 0.063662f, -0.172282f, 0.009626f, -0.051504f, -0.065678f, 0.138679f, -0.064243f, -0.082228f, 0.005263f, 0.084377f, -0.044071f, 0.119107f, 0.043371f, -0.201642f, -0.071036f, -0.066150f, 0.046722f, -0.259676f, 0.253008f, 0.052475f, 0.017461f, 0.121622f, 0.251334f, 0.079786f, 0.101077f, -0.013738f, -0.009666f, -0.049244f, -0.077934f, -0.072141f, -0.141089f, 0.004949f, -0.192992f, 0.019518f, -0.002112f, 0.016552f, -0.049034f, 0.327452f, 0.132798f, -0.127802f, 0.023300f, -0.029555f, -0.116465f, -0.138512f, 0.053929f, -0.069483f, 0.086856f, 0.081583f, 0.144564f, -0.071322f, 0.047906f, 0.059182f, -0.039978f, -0.069419f, 0.159632f, 0.022894f, 0.060039f, -0.068950f, -0.145447f, -0.054142f, -0.021498f, -0.091893f, -0.016164f, -0.174282f, -0.106448f, 0.062638f, 0.058535f, -0.034884f, -0.104068f, -0.106954f, -0.024267f, 0.060866f, 0.095401f, -0.071530f, -0.098122f, 0.025597f, -0.079618f, -0.059174f, 0.134290f, 0.094943f, -0.012691f, -0.127918f, 0.022404f, 0.108987f, -0.035394f, 0.157263f, 0.123207f, 0.163115f, 0.034384f, 0.092955f, 0.123937f, 0.039296f, -0.034736f, -0.046738f, 0.012276f, -0.146559f, -0.015652f, 0.124099f, -0.218666f, 0.146278f, 0.120816f, -0.035207f, 0.053253f, -0.001186f, 0.123218f, 0.114303f, -0.171521f, 0.059636f, -0.024269f, 0.023628f, -0.089228f, 0.170855f, 0.111553f, -0.079421f, -0.134787f, -0.033457f, 0.041922f, 0.022915f, 0.143281f, 0.073570f, 0.099606f, 0.006594f, -0.119752f, -0.020491f, 0.110448f, -0.012437f, 0.053321f, -0.023084f, -0.137834f, -0.016976f, 0.032513f, -0.065689f, -0.020446f, -0.070800f, 0.112585f, -0.035784f, 0.146190f, 0.186438f, -0.021642f, -0.107223f, -0.192992f, -0.152032f, -0.150387f, 0.123247f, 0.014622f, 0.052867f, -0.222052f, -0.126593f, 0.096463f, 0.036139f, -0.012450f, 0.056502f, 0.164274f, -0.009352f, -0.018258f, 0.020686f, 0.232425f, -0.192637f, 0.056111f, -0.015967f, 0.084139f, -0.064134f, -0.007035f, 0.072029f, 0.308159f, 0.076673f, -0.079095f, -0.039383f, -0.043138f, -0.201139f, -0.016165f, 0.076033f, -0.133116f, 0.108862f, 0.049760f, -0.072417f, -0.054687f, 0.155244f, 0.075146f, -0.002076f, -0.021506f, 0.025472f, -0.043509f, -0.217854f, 0.205513f, 0.049265f, 0.028962f, -0.011342f, -0.061114f, -0.022076f, -0.172906f, 0.209601f, -0.129255f, -0.091744f, -0.043555f, 0.121082f, 0.007894f, -0.116290f, 0.128696f, 0.070650f, 0.054310f, 0.087085f, 0.215041f, 0.219263f, -0.072139f, 0.176551f, 0.026919f, 0.045787f, -0.136469f, -0.015727f, -0.082926f, 0.083651f, 0.103221f, -0.209411f, 0.006433f, 0.116382f, -0.016050f, 0.047603f, 0.052736f, 0.037138f, -0.034261f, -0.117849f, -0.105038f, 0.065669f, -0.043112f, -0.019215f, -0.040712f, -0.035549f, 0.105460f, -0.018539f, -0.122169f, 0.066847f, -0.020392f, 0.038650f, 0.152845f, -0.006911f, 0.038300f, -0.121427f, -0.038158f, 0.040317f, -0.167817f, 0.033199f, 0.011355f, -0.006052f, 0.108999f, 0.045257f, 0.158545f, -0.103198f, 0.013966f, 0.018445f, -0.134169f, 0.096371f, 0.228352f, 0.014915f, 0.040629f, 0.005996f, -0.041614f, -0.177559f, -0.072676f, -0.140331f, 0.169839f, -0.016221f, -0.022578f, 0.089835f, -0.108217f, -0.096628f, 0.020148f, 0.105665f, 0.045936f, 0.031678f, 0.013061f, 0.029355f, -0.023491f, -0.105014f, 0.006129f, -0.115249f, 0.009895f, -0.036391f, 0.266492f, -0.010903f, -0.139996f, 0.020818f, 0.040960f, 0.163510f, -0.055093f, -0.157473f, 0.064259f, -0.159476f, -0.060464f, -0.010738f, -0.004998f, 0.057587f, -0.061426f, -0.012494f, 0.017452f, 0.010279f, 0.010833f, 0.046341f, 0.052987f, 0.039574f, 0.041578f, -0.139934f, -0.003167f, 0.042122f, 0.096800f, -0.063544f, -0.068569f, -0.059755f, 0.052903f, 0.096556f, -0.036777f, 0.093630f, 0.016211f, -0.020913f, -0.011792f, 0.077801f, 0.028616f, 0.235860f, -0.081830f, 0.042683f, -0.092842f, -0.086508f, 0.000437f, 0.005006f, 0.294374f, -0.009002f, -0.099760f, 0.020564f, -0.203726f, 0.021519f, -0.009645f, 0.075909f, 0.102388f, -0.048220f, -0.033521f, -0.101905f, -0.115081f, 0.056672f, -0.126805f, -0.055907f, -0.093387f, 0.058799f, 0.188911f, -0.129776f, -0.182597f, -0.004907f, -0.033495f, 0.024854f, -0.054416f, 0.008570f, 0.025775f, 0.100522f, -0.186134f, -0.035458f, 0.019627f, -0.092606f, 0.172374f, -0.064972f, 0.002354f, 0.055269f, -0.054263f, -0.193547f, -0.034850f, 0.104423f, -0.032656f, -0.081279f, 0.097506f, -0.039626f, -0.088241f, 0.016114f, 0.078122f, 0.230315f, 0.086031f, 0.124235f, -0.040392f, -0.108512f, 0.011402f, 0.039939f, -0.122597f, -0.021379f, 0.045649f, 0.037674f, 0.028770f, 0.006873f, -0.050416f, -0.030046f, -0.119175f, 0.167175f, 0.007951f, -0.021068f, -0.092810f, 0.295314f, -0.106835f, -0.033184f, 0.012107f, 0.062116f, 0.083930f, 0.201360f, 0.033033f, -0.103444f, -0.024844f, 0.028168f, 0.204864f, -0.134190f, 0.119735f, 0.022166f, 0.098834f, -0.013449f, -0.080970f, 0.067129f, 0.073315f, 0.096272f, 0.003259f, -0.062154f, -0.156257f, 0.075794f, 0.012395f, -0.097225f, -0.053292f, -0.052508f, -0.145742f, -0.075477f, -0.112755f, -0.045500f, -0.070149f, -0.131794f, 0.191728f, 0.122320f, -0.073765f, 0.026805f, 0.020518f, 0.100756f, -0.081446f, 0.130878f, -0.054181f, -0.144902f, 0.078881f, 0.131714f, 0.263159f, -0.116781f, 0.071805f, -0.032950f, 0.048196f, -0.145722f, -0.134129f, -0.057883f, -0.010553f, -0.067189f, 0.068452f, 0.105387f, 0.057465f, 0.164292f, 0.043713f, -0.119216f, 0.145158f, -0.063883f, 0.094696f, 0.150674f, 0.048153f, -0.149752f, -0.090493f, 0.132590f, -0.020825f, 0.003379f, 0.046739f, 0.065326f, 0.028638f, -0.025656f, -0.029804f, 0.093806f, 0.055769f, -0.029395f, 0.110658f, 0.018302f, -0.090934f, -0.079014f, -0.093237f, -0.031513f, 0.103734f, -0.092849f, 0.022516f, -0.046748f, -0.025916f, -0.160705f, -0.015704f, -0.014421f, 0.060627f, 0.025283f, -0.118422f, 0.112169f, -0.005010f, 0.020726f, -0.009886f, -0.033246f, 0.004253f, 0.044427f, -0.166490f, -0.053490f, -0.028978f, 0.028654f, 0.119645f, -0.072502f, -0.045979f, -0.052258f, -0.074806f, -0.041548f, 0.083546f, -0.104986f, 0.040483f, -0.169903f, -0.060079f, -0.038563f, 0.140863f, -0.031267f, -0.219850f, -0.205638f, 0.005846f, 0.065437f, 0.036767f, 0.012448f, 0.119589f, -0.024313f, 0.083084f, -0.165626f, -0.087724f, -0.184055f, -0.047405f, -0.020655f, 0.012419f, 0.025893f, -0.092356f, -0.031077f, -0.143871f, 0.142005f, -0.031568f, -0.045410f, 0.159990f, -0.120790f, -0.142855f, -0.108070f, -0.016116f, 0.064892f, 0.055402f, 0.257322f, -0.210715f, 0.068279f, -0.059035f, -0.060505f, -0.058979f, -0.089145f, 0.175718f, 0.084874f, 0.009908f, 0.121080f, -0.151034f, -0.133219f, -0.218393f, -0.063672f, 0.013309f, 0.005651f, -0.010026f, -0.148631f, 0.080272f, 0.020727f, 0.072717f, -0.184989f, 0.025332f, -0.123131f, -0.036472f, 0.081931f, 0.006631f, -0.087565f, 0.003609f, -0.158839f, 0.096508f, -0.030519f, 0.109343f, -0.040159f, -0.051829f, -0.084650f, 0.089490f, -0.064407f, 0.060890f, -0.035134f, -0.197601f, -0.056775f, -0.140720f, 0.003874f, -0.124130f, 0.108910f, -0.023924f, -0.020528f, 0.077204f, 0.103967f, -0.005902f, -0.082050f, -0.172493f, -0.068534f, -0.054621f, 0.008911f, -0.024052f, 0.058019f, -0.063669f, -0.006172f, 0.120645f, 0.042496f, -0.013716f, -0.066699f, -0.079675f, -0.094787f, -0.054062f, 0.071973f, -0.023572f, -0.138852f, 0.170330f, 0.027362f, -0.143537f, -0.017212f, 0.019070f, 0.169032f, -0.113859f, 0.091428f, 0.123559f, -0.071697f, -0.034950f, -0.094429f, -0.019509f, -0.012233f, 0.066037f, 0.114674f, -0.073702f, -0.194292f, -0.003586f, 0.024835f, 0.009180f, -0.033725f, 0.008676f, 0.163425f, 0.025828f, -0.036241f, -0.042679f, -0.012987f, 0.159742f, -0.021832f, -0.000412f, -0.041462f, 0.127889f, 0.194608f, 0.055945f, -0.007462f, 0.004101f, -0.239419f, 0.080593f, 0.019050f, 0.037048f, -0.076410f, -0.060513f, -0.053297f, 0.102525f, -0.039047f, 0.204160f, 0.041173f, -0.131844f, -0.017637f, -0.066437f, -0.197920f, 0.168170f, 0.068112f, 0.052099f, 0.006021f, -0.148848f, -0.053119f, 0.071122f, -0.099963f, -0.251762f, -0.027537f, -0.018662f, 0.022972f, 0.080814f, 0.065361f, 0.025962f, 0.108603f, -0.164016f, 0.048300f, 0.061858f, -0.117922f, -0.156034f, -0.071399f, -0.059633f, 0.077414f, -0.065502f, -0.092695f, -0.058613f, 0.121608f, 0.022540f, -0.021689f, -0.001384f, 0.114277f, -0.075811f, 0.131307f, 0.028373f, -0.005643f, 0.239088f, -0.113665f, -0.045429f, -0.132033f, 0.094943f, 0.167705f, 0.164140f, 0.112555f, -0.031627f, -0.039764f, -0.169698f, 0.223475f, 0.057623f, -0.049910f, 0.124498f, -0.107358f, 0.028096f, -0.027517f, 0.063008f, 0.006131f, -0.144295f, -0.000867f, 0.102595f, 0.005445f, 0.079763f, -0.097862f, -0.004907f, -0.070524f, 0.061367f, 0.003231f, 0.062945f, 0.121798f, 0.057139f, 0.023081f, -0.089017f, 0.011827f, -0.057383f, -0.043838f, -0.033946f, -0.093599f, -0.183421f, -0.066542f, 0.029716f, -0.145478f, -0.005061f, 0.192814f, 0.104560f, 0.187258f, 0.020261f, 0.109498f, -0.080302f, -0.075443f, -0.273968f, 0.117945f, 0.151232f, -0.062731f, -0.036841f, -0.077129f, 0.031882f, 0.129244f, -0.161247f, 0.039706f, -0.036230f, -0.001924f, 0.034262f, -0.021304f, -0.013540f, -0.014757f, 0.098263f, 0.034220f, 0.017211f, -0.117680f, -0.029302f, 0.092373f, 0.003824f, 0.045321f, 0.170917f, 0.102848f, 0.001819f, -0.041461f, -0.260424f, -0.020743f, -0.032895f, 0.047181f, -0.018459f, -0.036511f, -0.173119f, -0.082387f, 0.070742f, 0.165110f, 0.000391f, 0.013829f, 0.084619f, -0.080098f, 0.040320f, -0.054383f, 0.069959f, 0.011158f, 0.019396f, -0.088661f, 0.071197f, 0.208193f, -0.103039f, -0.041240f, 0.019253f, 0.076135f, -0.059244f, -0.273215f, 0.148449f, 0.073936f, -0.179672f, -0.076560f, 0.150049f, 0.146132f, 0.096216f, -0.006507f, 0.009129f, -0.022084f, 0.109809f, -0.082169f, -0.069850f, 0.104263f, -0.002351f, 0.113143f, -0.077124f, -0.005832f, -0.098231f, 0.014799f, -0.152226f, -0.058496f, -0.140346f, 0.077525f, 0.069094f, -0.180393f, 0.136451f, 0.260376f, 0.024768f, -0.067975f, 0.290101f, -0.153769f, -0.005319f, 0.020494f, 0.137679f, 0.056779f, -0.066937f, -0.095274f, -0.047423f, -0.114107f, 0.005202f, -0.054300f, -0.152362f, 0.118412f, -0.053251f, -0.130200f, -0.019278f, 0.013739f, -0.162337f, 0.030122f, -0.107626f, 0.149909f, 0.050294f, -0.039875f, -0.090840f, -0.007058f, 0.062413f, -0.006760f, -0.024856f, 0.016416f, -0.049073f, -0.033778f, -0.207204f, 0.075166f, 0.020362f, -0.080598f, 0.190061f, 0.009888f, -0.109767f, 0.076746f, 0.047619f, 0.050138f, -0.045061f, 0.035660f, -0.020485f, 0.061936f, -0.173826f, -0.047911f, 0.181287f, -0.098014f, -0.069559f, -0.041227f, -0.121933f, -0.195546f, -0.033777f, 0.015257f, -0.021452f, -0.033681f, 0.004998f, 0.107842f, -0.024957f, -0.063526f, -0.035940f, 0.056936f, 0.136375f, -0.053799f, 0.027028f, 0.030000f, -0.099328f, -0.027357f, -0.145544f, -0.170719f, 0.011500f, -0.041546f, 0.021865f, -0.003643f, -0.103988f, 0.007995f, -0.115908f, 0.139735f, -0.135490f, -0.039204f, -0.107554f, 0.052367f, -0.029432f, -0.059267f, 0.082989f, -0.020464f, 0.067697f, -0.072521f, -0.142819f, -0.000381f, -0.013475f, 0.080488f, 0.006330f, 0.017164f, -0.149053f, 0.174316f, -0.048709f, 0.075813f, -0.089235f, 0.060629f, -0.156172f, 0.052792f, -0.047541f, -0.021695f, 0.069914f, -0.118209f, -0.081999f, 0.031411f, 0.196492f, -0.012955f, 0.049300f, -0.004693f, 0.227030f, -0.178328f, 0.008622f, -0.189877f, -0.243997f, 0.031294f, -0.006894f, -0.026848f, -0.009248f, 0.304511f, -0.033473f, 0.061823f, -0.062244f, 0.031886f, -0.025205f, -0.062967f, 0.177962f, 0.115097f, 0.014093f, -0.227450f, -0.039066f, 0.253329f, -0.010392f, 0.126118f, 0.141753f, 0.011544f, -0.076688f, -0.237145f, 0.083745f, -0.081673f, 0.025612f, -0.136949f, -0.041662f, 0.008828f, 0.022174f, -0.082392f, 0.103032f, -0.063636f, -0.177894f, -0.024516f, 0.004734f, 0.018491f, 0.132654f, -0.028277f, -0.027167f, -0.110731f, 0.073309f, 0.023565f, -0.027232f, -0.193417f, 0.141461f, -0.148213f, -0.059718f, 0.031143f, -0.147052f, -0.136556f, -0.209595f, 0.062821f, -0.051867f, 0.315295f, -0.092334f, -0.092315f, -0.054184f, 0.007205f, -0.072830f, 0.058343f, -0.094708f, -0.130081f, -0.193341f, -0.237901f, -0.044989f, -0.009949f, -0.065611f, 0.112989f, 0.135991f, -0.017642f, -0.157938f, -0.060044f, -0.050590f, -0.083686f, -0.096342f, -0.061118f, -0.040688f, -0.032769f, -0.002984f, 0.032586f, -0.094566f, 0.113389f, -0.096337f, -0.158983f, 0.032961f, -0.088894f, 0.014614f, -0.240102f, 0.128313f, 0.068553f, -0.130931f, -0.150321f, 0.161207f, -0.100533f, -0.081128f, -0.228886f, -0.065499f, -0.017072f, 0.075265f, -0.148714f, -0.155503f, 0.059041f, 0.103274f, -0.156669f, 0.106902f, -0.009209f, 0.095392f, -0.009703f, -0.249790f, -0.009920f, 0.098106f, -0.104461f, -0.038879f, -0.004359f, -0.292946f, 0.156899f, -0.079278f, 0.060954f, 0.011724f, 0.120175f, 0.051630f, -0.029002f, -0.110575f, 0.082822f, -0.186561f, 0.090717f, -0.131964f, 0.122318f, 0.019939f, 0.049579f, 0.009713f, -0.172514f, -0.094670f, 0.053402f, -0.004008f, 0.118772f, 0.027453f, -0.099278f, -0.053684f, 0.008815f, -0.242862f, 0.141476f, 0.053170f, 0.118221f, -0.194521f, 0.128772f, 0.227199f, -0.141041f, 0.069866f, 0.017814f, -0.148609f, 0.049486f, 0.080799f, -0.083571f, 0.107066f, -0.169436f, -0.147715f, 0.016707f, -0.003665f, -0.084673f, 0.081578f, 0.068596f, 0.082895f, -0.023937f, 0.072099f, -0.034628f, 0.221975f, -0.085984f, 0.220255f, 0.004069f, -0.162141f, 0.139516f, 0.016436f, 0.117580f, 0.093564f, 0.030780f, -0.054157f, 0.083970f, 0.001878f, 0.071189f, -0.224326f, 0.032452f, -0.080857f, 0.165553f, 0.050078f, 0.018035f, 0.076152f, -0.101343f, 0.148745f, 0.171684f, 0.054371f, 0.156352f, -0.091779f, -0.075587f, 0.008384f, 0.036095f, -0.046959f, 0.076288f, 0.041477f, -0.100789f, 0.050142f, 0.060669f, 0.009343f, 0.111987f, -0.122423f, 0.047221f, -0.121098f, -0.125203f, -0.059310f, -0.075858f, -0.058347f, -0.037375f, 0.098739f, -0.021599f, -0.139254f, 0.108426f, -0.071017f, -0.002254f, 0.016402f, 0.023507f, 0.115337f, 0.086155f, -0.119232f, 0.210969f, 0.027144f, -0.030106f, 0.098359f, 0.028884f, 0.028704f, 0.239269f, -0.045860f, -0.028815f, -0.002185f, 0.099184f, -0.119314f, -0.197390f, -0.074993f, -0.195268f, -0.023946f, 0.046238f, -0.123048f, -0.146815f, 0.011203f, 0.083513f, -0.182996f, 0.104282f, 0.087427f, 0.097632f, 0.119606f, 0.201251f, -0.031216f, 0.007868f, -0.041505f, -0.009673f, 0.154415f, -0.142355f, -0.087199f, 0.152169f, 0.098590f, -0.052713f, 0.097377f, 0.040828f, 0.169846f, 0.000935f, 0.118391f, 0.267631f, 0.038101f, 0.007702f, 0.079552f, 0.000653f, 0.213272f, 0.014298f, -0.018821f, -0.100594f, 0.111621f, 0.093039f, -0.061031f, 0.049155f, -0.166966f, 0.022309f, 0.032310f, 0.161240f, -0.045209f, -0.129185f, -0.104056f, -0.170040f, 0.155591f, 0.151158f, 0.003374f, 0.119964f, 0.017434f, -0.013058f, -0.046040f, -0.009302f, -0.151016f, 0.030001f, -0.004611f, 0.055678f, 0.013436f, -0.018489f, -0.087082f, -0.002530f, 0.076475f, -0.117950f, 0.006477f, 0.034682f, -0.075199f, -0.074466f, 0.034871f, -0.111747f, 0.048620f, -0.097246f, 0.121901f, 0.243913f, -0.103102f, 0.056170f, -0.063598f, 0.139180f, -0.149957f, 0.052413f, -0.077080f, -0.038990f, -0.101515f, 0.091128f, -0.094213f, 0.048956f, -0.044860f, -0.007870f, 0.002973f, -0.091564f, 0.053262f, 0.151105f, -0.089402f, 0.081549f, 0.173611f, -0.079427f, -0.179253f, 0.022372f, -0.050456f, 0.186320f, -0.010983f, -0.053340f, -0.109085f, 0.111612f, -0.059196f, -0.020961f, 0.105559f, -0.051873f, -0.000660f, -0.015177f, 0.071815f, 0.056665f, -0.029620f, 0.012210f, -0.040290f, -0.159536f, 0.035130f, 0.197478f, -0.069412f, -0.083940f, -0.072976f, 0.075729f, 0.033466f, -0.015119f, -0.080515f, 0.033152f, -0.176332f, 0.028248f, 0.090633f, -0.142738f, -0.151541f, 0.169205f, -0.070335f, 0.115464f, -0.016009f, -0.014269f, 0.036790f, -0.105990f, 0.039250f, -0.041742f, -0.136439f, -0.000927f, -0.000804f, -0.000403f, -0.154886f, 0.150778f, 0.091305f, 0.097823f, -0.041319f, -0.149031f, 0.205807f, -0.007193f, -0.073307f, 0.018485f, 0.122394f, -0.006455f, 0.135372f, 0.096962f, -0.102536f, -0.077153f, 0.088428f, -0.269830f, -0.017839f, -0.151922f, -0.040564f, -0.027218f, -0.018347f, -0.061543f, -0.097939f, 0.238189f, 0.179622f, -0.115136f, 0.168716f, -0.026345f, 0.000726f, 0.004197f, -0.061032f, 0.083528f, 0.014347f, -0.037558f, -0.136459f, -0.088951f, -0.169070f, 0.002934f, -0.130629f, -0.043934f, 0.158186f, 0.116713f, -0.010300f, -0.039434f, 0.211843f, 0.064607f, -0.062714f, -0.144376f, 0.042286f, 0.081314f, -0.070058f, 0.049053f, -0.020128f, -0.019649f, -0.249736f, -0.042250f, 0.092639f, -0.066501f, 0.010103f, -0.077665f, 0.039782f, -0.025898f, -0.096883f, 0.137281f, 0.090866f, -0.069495f, 0.055965f, 0.053835f, 0.079049f, -0.175201f, 0.112641f, -0.049537f, -0.044354f, 0.265530f, 0.040856f, -0.023479f, -0.226619f, 0.148237f, -0.126128f, -0.112827f, -0.031362f, 0.151183f, 0.072557f, -0.018184f, 0.019769f, -0.059025f, -0.001309f, -0.008173f, 0.119559f, 0.093922f, 0.040393f, -0.063979f, 0.097593f, 0.004770f, -0.132568f, -0.043153f, 0.011339f, 0.092584f, -0.024844f, -0.110021f, 0.013982f, 0.011143f, 0.016133f, 0.082560f, 0.100047f, -0.062361f, -0.058695f, -0.110023f, 0.077293f, 0.138110f, -0.028129f, -0.020795f, 0.145152f, 0.041126f, 0.049069f, -0.121858f, 0.080016f, -0.095873f, -0.104894f, -0.020011f, -0.063665f, -0.019110f, -0.138165f, 0.109779f, 0.110438f, -0.193040f, 0.106754f, -0.091724f, 0.086926f, 0.000194f, -0.001109f, -0.025047f, 0.101039f, -0.122293f, 0.041494f, 0.098383f, 0.093882f, 0.230855f, -0.065624f, 0.069502f, 0.008643f, 0.134175f, -0.020081f, -0.038911f, 0.132203f, -0.048784f, -0.147651f, -0.048875f, 0.058433f, 0.139952f, 0.006224f, 0.131119f, -0.137495f, -0.045682f, -0.029496f, -0.015417f, 0.012150f, 0.062943f, -0.048103f, 0.018935f, -0.005508f, -0.103046f, -0.006232f, -0.016484f, -0.005138f, -0.000081f, 0.013066f, -0.027688f, 0.120120f, -0.113460f, -0.069607f, 0.305310f, -0.114449f, -0.136129f, 0.080014f, -0.217345f, -0.022474f, 0.219856f, -0.158321f, -0.208180f, -0.174408f, 0.089407f, 0.094404f, -0.065810f, 0.094957f, 0.138102f, 0.166015f, -0.048324f, -0.213022f, -0.078514f, -0.059668f, -0.024569f, -0.017110f, 0.109569f, 0.121458f, -0.019681f, 0.100964f, 0.037873f, 0.000112f, 0.091611f, 0.006540f, 0.205258f, -0.147273f, -0.061505f, -0.009286f, 0.037417f, 0.120160f, 0.001271f, -0.142762f, 0.073975f, 0.078536f, -0.196307f, 0.008236f, -0.161002f, -0.061729f, -0.067317f, 0.072805f, 0.014301f, -0.127303f, 0.112671f, -0.153178f, 0.026262f, -0.072526f, -0.043402f, 0.051398f, 0.055355f, 0.130957f, -0.023466f, 0.007174f, -0.044200f, 0.001831f, 0.029020f, 0.017539f, -0.179657f, 0.017113f, 0.014762f, -0.049542f, -0.131128f, 0.132612f, 0.052207f, -0.021442f, -0.116558f, -0.088911f, 0.125288f, -0.002355f, -0.052673f, 0.044534f, -0.077240f, 0.152763f, 0.136431f, -0.055507f, -0.067720f, -0.261233f, -0.157429f, -0.138408f, 0.018798f, -0.034436f, -0.147496f, -0.023559f, 0.046365f, 0.051474f, -0.191153f, -0.008784f, -0.100003f, 0.078144f, 0.081779f, -0.089872f, -0.048884f, -0.063602f, -0.230292f, 0.045050f, -0.033210f, 0.097783f, -0.106104f, -0.065499f, -0.165854f, -0.122687f, -0.118880f, 0.085520f, -0.085709f, 0.042125f, -0.037009f, -0.143386f, -0.035808f, 0.080378f, -0.124767f, 0.065618f, -0.080680f, -0.047712f, 0.050610f, -0.073898f, 0.002246f, -0.045383f, 0.015623f, -0.242138f, -0.175191f, 0.064369f, 0.105124f, -0.100728f, -0.024871f, 0.026488f, 0.069920f, -0.214755f, -0.092312f, -0.035378f, 0.059695f, 0.246460f, -0.032550f, -0.127637f, 0.038759f, 0.133132f, 0.046009f, -0.089346f, 0.098315f, 0.068330f, -0.081253f, 0.030063f, 0.095718f, 0.133295f, -0.012075f, -0.034466f, 0.128049f, -0.123318f, 0.030198f, -0.167990f, 0.106590f, -0.041657f, 0.111875f, 0.076077f, -0.121287f, 0.127420f, 0.137175f, 0.109914f, -0.085282f, -0.046781f, 0.018970f, -0.067822f, 0.166800f, 0.009312f, -0.263872f, 0.005613f, -0.030643f, -0.018624f, -0.026256f, 0.077264f, 0.112872f, 0.020260f, -0.036272f, -0.005356f, -0.008893f, -0.100007f, 0.058455f, 0.042918f, 0.146012f, 0.127143f, -0.067417f, 0.086346f, -0.100097f, 0.077497f, -0.015757f, -0.106167f, 0.030359f, -0.263439f, -0.157889f, -0.039433f, 0.010923f, -0.027627f, -0.170220f, -0.079360f, 0.046069f, 0.052834f, -0.010122f, 0.087876f, 0.042147f, -0.095883f, -0.042128f, -0.111641f, -0.011443f, 0.101680f, 0.047334f, 0.167720f, -0.028102f, 0.111658f, -0.024013f, 0.149931f, -0.001374f, 0.059568f, 0.155093f, -0.040919f, 0.027253f, 0.117861f, -0.006264f, -0.123975f, 0.214623f, -0.050916f, 0.019068f, 0.121505f, -0.069667f, -0.133094f, 0.022166f, -0.182569f, -0.037464f, 0.026211f, -0.021485f, -0.151597f, 0.150445f, 0.018879f, 0.178833f, -0.028460f, -0.089073f, 0.041517f, -0.014186f, -0.143353f, 0.157181f, -0.062024f, -0.201134f, 0.136251f, -0.042102f, -0.065830f, -0.176037f, 0.163709f, -0.125270f, -0.014820f, 0.074346f, 0.066815f, -0.008299f, -0.172623f, -0.104861f, 0.047055f, -0.070367f, 0.004349f, 0.062327f, 0.099256f, -0.119412f, 0.210148f, 0.088607f, -0.001540f, 0.117274f, 0.229048f, -0.139439f, -0.019767f, -0.237998f, 0.019959f, 0.030012f, 0.009051f, -0.122124f, -0.211662f, 0.053406f, 0.140495f, -0.091725f, 0.048348f, -0.225007f, 0.046338f, -0.048443f, -0.077875f, -0.043097f, -0.024329f, 0.051450f, -0.167250f, -0.004553f, -0.032540f, -0.127372f, 0.211755f, -0.087315f, -0.065512f, -0.102616f, 0.175917f, -0.003858f, -0.117125f, 0.112074f, -0.004974f, 0.005000f, 0.007532f, -0.066973f, -0.003588f, -0.057959f, 0.211403f, -0.079772f, 0.160884f, -0.023679f, 0.030603f, 0.103370f, -0.070383f, 0.132071f, -0.291159f, -0.065097f, -0.090474f, -0.121633f, -0.029550f, 0.032198f, 0.094944f, 0.009680f, -0.058579f, 0.014092f, 0.021745f, 0.102971f, 0.070932f, -0.013984f, -0.085393f, -0.088569f, -0.067866f, -0.039087f, 0.040191f, 0.104817f, -0.006618f, 0.006649f, 0.004922f, -0.028399f, -0.119740f, -0.160149f, -0.045806f, 0.035415f, -0.068504f, -0.014018f, 0.043981f, 0.044500f, -0.131242f, 0.101789f, 0.096284f, -0.133372f, -0.057338f, 0.117657f, -0.017433f, -0.242096f, -0.111697f, -0.013247f, -0.127562f, -0.046790f, 0.006146f, 0.151734f, -0.034859f, 0.127834f, 0.139386f, 0.151092f, 0.022761f, -0.191947f, 0.041925f, 0.102837f, -0.000257f, 0.163810f, 0.089772f, 0.041235f, 0.102413f, 0.038115f, -0.253610f, -0.063772f, 0.123482f, -0.080651f, -0.018987f, -0.111285f, 0.193072f, 0.196598f, -0.097324f, 0.014388f, -0.065592f, 0.067873f, 0.033202f, 0.093884f, 0.034839f, 0.281104f, -0.099111f, -0.163978f, -0.040577f, -0.156988f, -0.155621f, -0.099232f, -0.106297f, -0.115019f, 0.068698f, -0.053952f, -0.012488f, 0.067686f, -0.049415f, -0.020987f, 0.023501f, -0.197142f, -0.235122f, 0.036968f, 0.045583f, 0.219027f, 0.014814f, 0.088514f, -0.025211f, 0.036452f, 0.161858f, -0.213796f, 0.047484f, 0.204032f, 0.031692f, 0.146913f, -0.078747f, 0.001636f, -0.000504f, -0.236020f, -0.114373f, -0.104130f, 0.087123f, 0.080692f, 0.045935f, 0.111606f, -0.025489f, 0.118815f, 0.004834f, 0.012409f, -0.048052f, 0.083585f, -0.042985f, 0.082970f, -0.110350f, -0.101999f, 0.068042f, -0.004546f, -0.053529f, 0.089665f, -0.075137f, -0.035285f, 0.155676f, 0.149264f, 0.166441f, -0.050226f, 0.145691f, -0.091334f, -0.083203f, -0.237302f, 0.168044f, -0.082533f, -0.016101f, -0.096768f, 0.054587f, -0.031325f, -0.135060f, 0.059780f, -0.139100f, -0.082816f, -0.214480f, -0.149371f, 0.021438f, -0.213530f, -0.159518f, 0.006072f, -0.056249f, 0.185082f, 0.186447f, -0.083181f, 0.060679f, 0.068022f, -0.050246f, -0.130572f, -0.009536f, -0.018359f, -0.043016f, 0.050446f, -0.086522f, -0.102271f, 0.008379f, 0.025072f, -0.114936f, 0.099096f, -0.176634f, -0.053666f, -0.040785f, -0.063189f, -0.072602f, 0.177947f, -0.071212f, 0.239769f, 0.052233f, -0.010034f, 0.064920f, 0.255991f, -0.096387f, -0.117013f, -0.075034f, 0.008354f, -0.173471f, -0.001290f, 0.151099f, 0.021350f, -0.036408f, -0.034603f, 0.090825f, -0.082884f, 0.183183f, 0.182375f, 0.024263f, -0.020291f, 0.087119f, 0.115895f, -0.081870f, -0.067435f, -0.127848f, 0.051812f, 0.077720f, -0.142902f, -0.034046f, -0.119935f, -0.101285f, 0.054269f, -0.070500f, -0.022393f, -0.175612f, 0.031022f, -0.007309f, -0.086831f, -0.015815f, 0.024613f, -0.081095f, -0.139271f, 0.164477f, -0.060573f, -0.025352f, 0.096301f, 0.363580f, -0.128677f, 0.054246f, -0.089162f, -0.037444f, -0.069439f, -0.117109f, -0.007769f, -0.146722f, 0.097009f, 0.007502f, 0.044311f, -0.061688f, -0.031966f, 0.021269f, -0.086988f, -0.041411f, -0.086735f, -0.086198f, -0.217988f, 0.127967f, -0.080548f, 0.096241f, 0.115149f, -0.129670f, -0.124451f, 0.263324f, 0.186494f, 0.026480f, 0.016348f, -0.049739f, 0.051334f, -0.089668f, -0.205216f, -0.126311f, 0.009438f, -0.121550f, 0.003838f, -0.105374f, -0.089678f, 0.087711f, 0.029878f, -0.000211f, 0.091905f, 0.026574f, 0.148522f, -0.062391f, -0.046308f, -0.121258f, -0.045406f, 0.100466f, 0.117353f, 0.111562f, -0.177145f, 0.108265f, -0.187418f, 0.090694f, -0.033691f, 0.072826f, -0.130177f, 0.097983f, -0.141048f, -0.075493f, -0.071097f, -0.180472f, 0.009253f, 0.180318f, 0.263029f, 0.004901f, 0.104241f, 0.005321f, 0.059248f, -0.036368f, 0.004185f, 0.063052f, -0.049334f, 0.023559f, -0.016074f, 0.096845f, -0.097798f, -0.024036f, 0.190599f, 0.121550f, 0.150850f, -0.014317f, 0.043381f, 0.104622f, 0.147044f, -0.193252f, -0.128197f, 0.131405f, -0.024505f, -0.091907f, -0.122541f, -0.069894f, -0.147367f, 0.217438f, -0.004955f, -0.001292f, 0.049990f, 0.111679f, 0.102625f, 0.106480f, -0.062729f, -0.029611f, 0.076917f, -0.049202f, 0.004565f, 0.029178f, 0.083751f, -0.184540f, 0.091250f, -0.033572f, 0.070099f, 0.078411f, 0.162572f, 0.131266f, 0.126113f, 0.138616f, 0.039402f, 0.000192f, 0.071266f, 0.082292f, -0.028133f, 0.062913f, -0.010625f, -0.071777f, 0.141716f, -0.012903f, 0.206174f, -0.160998f, -0.033771f, -0.014528f, 0.124550f, 0.043136f, 0.024312f, -0.110914f, -0.113537f, 0.032284f, -0.138589f, -0.081176f, 0.051770f, -0.111597f, 0.153195f, 0.131799f, -0.159284f, -0.090436f, -0.235531f, -0.060735f, 0.089845f, -0.046145f, 0.045412f, -0.151602f, 0.082303f, -0.052812f, 0.007252f, -0.013942f, -0.124042f, -0.120136f, 0.109780f, 0.033520f, 0.103433f, 0.035154f, 0.014497f, -0.171504f, -0.037066f, -0.004116f, 0.200987f, 0.067122f, 0.139322f, 0.066610f, -0.070240f, 0.031459f, 0.017787f, -0.079895f, -0.027682f, -0.030816f, 0.159634f, -0.207503f, 0.130479f, -0.094545f, -0.128974f, 0.118810f, 0.064667f, 0.127514f, 0.082061f, 0.205073f, 0.051491f, -0.042450f, 0.036841f, 0.109333f, -0.082854f, -0.051867f, -0.032539f, -0.208428f, 0.006587f, -0.174885f, 0.019101f, 0.077407f, -0.054351f, 0.169499f, -0.141795f, 0.119481f, 0.075958f, -0.171968f, 0.275263f, -0.012358f, -0.077441f, -0.140301f, -0.024265f, -0.009067f, 0.003152f, -0.022238f, 0.053557f, -0.033152f, -0.189802f, -0.015356f, -0.249127f, 0.039777f, -0.098622f, 0.022297f, 0.129938f, -0.085422f, 0.118165f, -0.049394f, 0.173998f, -0.037197f, -0.082951f, 0.077900f, -0.038827f, -0.080338f, -0.055864f, -0.002855f, 0.134080f, -0.194167f, -0.005534f, 0.039044f, 0.022765f, 0.114506f, -0.011472f, -0.005243f, 0.058737f, 0.009275f, -0.042715f, 0.062022f, -0.054921f, -0.055852f, -0.056800f, 0.135275f, -0.320608f, 0.039804f, 0.004232f, -0.176083f, 0.037074f, 0.040518f, 0.076914f, -0.265118f, 0.136823f, -0.075918f, 0.068658f, 0.072209f, -0.099560f, 0.042641f, -0.029379f, -0.196351f, 0.103272f, -0.090006f, -0.091203f, -0.042023f, 0.026912f, 0.005154f, 0.031862f, -0.108362f, -0.084965f, -0.018596f, 0.131081f, 0.068005f, 0.114360f, 0.014878f, -0.055440f, -0.025248f, -0.017423f, 0.062619f, 0.131019f, 0.016757f, 0.121973f, -0.109935f, -0.038255f, -0.069097f, 0.033026f, -0.035608f, 0.082709f, -0.099166f, 0.010567f, 0.106801f, -0.210800f, 0.203069f, -0.025719f, -0.189311f, 0.016179f, -0.005430f, -0.001492f, 0.091050f, 0.121990f, 0.003891f, 0.055120f, -0.014223f, 0.230344f, -0.213618f, 0.005526f, 0.003506f, 0.080993f, -0.084828f, -0.185462f, 0.010189f, 0.026098f, 0.148707f, -0.128665f, 0.123809f, 0.242126f, -0.026121f, -0.130000f, -0.045475f, -0.008220f, 0.060218f, -0.057066f, 0.176048f, -0.117347f, -0.172951f, 0.109008f, -0.226907f, -0.034610f, 0.284783f, 0.002951f, -0.126062f, -0.007831f, 0.003286f, 0.016143f, 0.063073f, -0.098122f, 0.180554f, 0.024580f, 0.093104f, -0.063899f, 0.127960f, -0.024714f, 0.030647f, -0.097111f, -0.119879f, 0.075235f, -0.053121f, -0.065948f, -0.068919f, 0.072707f, -0.069462f, -0.003580f, -0.005513f, -0.202514f, -0.141352f, 0.034150f, -0.074476f, 0.095480f, 0.094817f, 0.067918f, 0.178915f, -0.010634f, 0.072886f, -0.047490f, 0.252179f, 0.198627f, -0.006063f, 0.037842f, 0.138458f, -0.013383f, -0.044115f, 0.084537f, 0.007303f, 0.015673f, -0.083236f, -0.184514f, -0.012898f, 0.092850f, -0.035250f, 0.141615f, -0.061723f, -0.103622f, -0.012300f, -0.005378f, 0.077761f, -0.080222f, 0.151906f, 0.195638f, -0.005877f, 0.125003f, -0.103842f, 0.105774f, 0.079488f, 0.091506f, -0.010714f, -0.273047f, -0.067682f, -0.058537f, -0.104968f, 0.015594f, -0.057650f, -0.082314f, -0.106688f, -0.070339f, 0.113221f, -0.074411f, -0.051830f, -0.039521f, 0.034264f, 0.043711f, -0.295483f, 0.112226f, 0.145316f, -0.106337f, -0.096009f, -0.046066f, -0.062250f, 0.010942f, -0.167041f, -0.114400f, 0.151040f, -0.095938f, 0.123665f, 0.016106f, -0.226722f, 0.064494f, -0.026505f, -0.043807f, 0.035329f, 0.051059f, 0.058135f, 0.123333f, 0.027933f, -0.166489f, -0.040902f, 0.296172f, 0.067681f, 0.235881f, 0.140085f, 0.022223f, 0.000466f, -0.003857f, -0.180384f, 0.022523f, 0.119280f, -0.054043f, 0.033824f, 0.093280f, -0.133865f, -0.071607f, -0.110480f, -0.081762f, -0.131979f, -0.099032f, 0.140916f, -0.083337f, 0.008714f, -0.054962f, 0.124092f, 0.144222f, 0.090794f, 0.033158f, -0.027410f, -0.115609f, 0.170705f, -0.085818f, 0.081138f, 0.102806f, -0.057061f, 0.100556f, 0.075303f, 0.160369f, -0.083898f, -0.128538f, -0.061159f, 0.022573f, 0.012749f, -0.037962f, -0.195952f, 0.050750f, 0.187628f, 0.029474f, 0.069826f, 0.058484f, 0.037159f, 0.091341f, 0.039484f, -0.036744f, -0.107214f, -0.022353f, 0.024108f, -0.012224f, 0.029157f, 0.047650f, 0.075679f, 0.134791f, -0.015096f, -0.133201f, -0.038099f, 0.004763f, -0.185051f, 0.129891f, 0.013111f, 0.047250f, 0.133079f, -0.064755f, 0.061142f, 0.004535f, -0.017556f, -0.075382f, 0.162675f, -0.031170f, 0.059143f, -0.188715f, 0.142730f, 0.103564f, 0.009434f, -0.026143f, 0.037649f, 0.213232f, -0.218073f, 0.081972f, -0.101083f, 0.002073f, -0.016850f, -0.042162f, -0.010271f, -0.108496f, 0.110169f, -0.193199f, 0.073170f, -0.029041f, -0.118418f, 0.018160f, -0.158804f, -0.009180f, -0.178488f, 0.053308f, -0.101331f, -0.022934f, 0.031244f, -0.073852f, -0.020862f, -0.143383f, 0.055014f, 0.159543f, 0.274191f, 0.012901f, 0.076031f, -0.188183f, 0.150426f, 0.085892f, -0.053939f, 0.120201f, -0.019848f, -0.030490f, 0.046216f, -0.102694f, 0.095683f, -0.095293f, -0.128397f, -0.086842f, 0.098347f, -0.061708f, -0.134456f, -0.064353f, -0.005821f, -0.132983f, -0.154918f, 0.215415f, -0.090853f, -0.030011f, -0.030584f, -0.041998f, 0.055124f, 0.101956f, -0.016326f, -0.127027f, 0.143514f, -0.003019f, 0.174147f, -0.228511f, 0.015115f, 0.179408f, -0.072191f, -0.012337f, 0.022478f, -0.037073f, -0.032357f, -0.031818f, -0.076711f, 0.133403f, 0.053340f, 0.017634f, 0.088419f, -0.018607f, -0.079974f, -0.071740f, 0.000785f, -0.100788f, -0.053537f, -0.052207f, 0.218629f, -0.266201f, -0.021473f, 0.176462f, 0.004844f, 0.092259f, -0.004260f, -0.065425f, -0.205202f, 0.019587f, -0.077276f, -0.083197f, -0.051472f, 0.164489f, 0.203830f, 0.027573f, -0.051993f, -0.113540f, 0.048396f, 0.178161f, -0.031006f, -0.230215f, 0.075756f, 0.092076f, -0.145427f, 0.025881f, 0.046087f, -0.011244f, -0.081648f, 0.089889f, -0.074633f, -0.139777f, -0.208974f, 0.142007f, 0.056867f, 0.010699f, -0.055229f, -0.037975f, -0.102819f, -0.047769f, -0.207310f, -0.066554f, -0.032095f, 0.051772f, -0.004169f, 0.086662f, 0.136657f, 0.106020f, 0.054443f, 0.009183f, -0.101976f, 0.076621f, 0.164540f, 0.045266f, 0.189373f, -0.149304f, -0.096115f, 0.081903f, 0.026869f, 0.129074f, -0.003150f, -0.096040f, -0.048785f, -0.145156f, -0.119275f, 0.100578f, 0.087236f, 0.035415f, -0.176910f, -0.028307f, -0.113309f, 0.118249f, -0.032700f, -0.101412f, 0.004197f, -0.066165f, 0.145509f, -0.088354f, -0.169662f, -0.203136f, -0.008009f, -0.041875f, -0.149193f, 0.120676f, 0.055064f, 0.017514f, 0.147622f, 0.065369f, -0.084133f, -0.096489f, 0.082910f, 0.029216f, 0.016082f, -0.072150f, 0.074576f, -0.078084f, 0.000415f, 0.147024f, -0.071888f, -0.157212f, -0.101044f, 0.109826f, 0.034844f, -0.006081f, -0.039475f, 0.044486f, -0.084155f, 0.029084f, -0.074294f, -0.092074f, -0.077579f, -0.030513f, -0.004475f, 0.024591f, -0.372078f, -0.082213f, -0.037144f, 0.159287f, -0.100103f, 0.017280f, 0.172908f, -0.127253f, 0.040582f, -0.081696f, -0.052202f, -0.091084f, -0.095557f, 0.286415f, 0.075103f, 0.127112f, 0.039344f, -0.158942f, 0.028123f, 0.129174f, -0.077659f, 0.092084f, 0.072732f, 0.192731f, -0.039943f, -0.119226f, -0.036409f, 0.153020f, -0.169623f, -0.204780f, 0.014727f, -0.038190f, -0.007946f, 0.093680f, -0.054538f, -0.179023f, 0.219287f, -0.099689f, -0.095547f, 0.102080f, -0.038089f, -0.009046f, 0.047797f, 0.104406f, -0.047409f, 0.161196f, -0.223484f, 0.082175f, -0.084866f, 0.136903f, 0.008769f, -0.062847f, 0.066725f, 0.091873f, 0.082600f, -0.100174f, -0.047432f, -0.002810f, -0.004567f, 0.067733f, -0.219990f, 0.045145f, -0.036282f, -0.068462f, -0.083703f, -0.019974f, -0.367758f, -0.049953f, -0.081813f, 0.045499f, -0.078540f, -0.018152f, 0.157042f, 0.090272f, 0.089205f, -0.043791f, 0.064620f, -0.019859f, -0.018652f, 0.047876f, -0.063964f, 0.148150f, -0.020000f, 0.067076f, 0.163856f, 0.103049f, -0.129220f, 0.038374f, 0.084453f, 0.086916f, -0.112216f, -0.068419f, 0.081810f, -0.069179f, -0.034027f, 0.162640f, -0.002126f, -0.072102f, -0.090881f, 0.038370f, -0.134773f, -0.023376f, 0.049749f, 0.134809f, 0.067499f, -0.074247f, 0.116149f, -0.039405f, -0.148712f, -0.009008f, 0.142790f, 0.029771f, -0.002911f, 0.165854f, -0.148083f, -0.108599f, -0.151852f, 0.031119f, 0.027363f, 0.161600f, 0.025941f, -0.050499f, -0.001224f, 0.015843f, -0.161277f, 0.274078f, 0.057527f, 0.028961f, 0.056891f, 0.071357f, -0.018761f, -0.052678f, 0.075228f, 0.036219f, -0.065880f, 0.138412f, 0.028074f, 0.070182f, 0.137706f, -0.005140f, 0.006850f, 0.085372f, -0.073101f, 0.010091f, 0.021160f, -0.094068f, 0.227172f, -0.133703f, -0.129377f, 0.134751f, 0.092214f, -0.099642f, 0.060701f, 0.145217f, -0.006041f, 0.246409f, -0.198314f, 0.077189f, 0.114361f, 0.101148f, -0.017649f, -0.026813f, 0.038011f, 0.098526f, 0.072464f, 0.094017f, -0.096869f, -0.015118f, -0.092725f, -0.048866f, 0.101795f, 0.019765f, 0.268553f, 0.018576f, 0.014478f, 0.018321f, -0.070250f, -0.004673f, 0.110840f, 0.023780f, -0.070114f, -0.090244f, -0.025142f, 0.003021f, 0.117996f, -0.134774f, -0.033645f, 0.005086f, -0.208943f, -0.077991f, -0.071402f, -0.072251f, 0.028214f, -0.014146f, -0.062845f, 0.048806f, 0.174197f, 0.171147f, -0.160561f, 0.062061f, -0.018122f, 0.014162f, -0.042537f, -0.007419f, -0.018401f, -0.048836f, -0.095484f, -0.029255f, 0.027387f, 0.063318f, 0.073540f, -0.030179f, 0.042547f, 0.086491f, 0.120546f, 0.005578f, -0.020195f, 0.006066f, -0.114059f, -0.012754f, 0.081505f, 0.064548f, -0.013927f, 0.028567f, -0.094092f, 0.071131f, -0.011272f, -0.012245f, -0.021205f, -0.005096f, -0.025217f, 0.059445f, -0.040816f, 0.159177f, 0.144352f, -0.096717f, -0.020491f, -0.058496f, -0.041684f, 0.210687f, -0.021780f, 0.037816f, 0.044454f, -0.095140f, -0.087576f, -0.113322f, -0.058846f, -0.282493f, 0.054107f, 0.204712f, 0.011222f, -0.158942f, -0.096828f, -0.037018f, -0.106139f, 0.103212f, 0.086261f, -0.111683f, 0.059888f, 0.172549f, 0.198428f, 0.277383f, -0.084229f, 0.295875f, -0.033811f, -0.072321f, 0.032507f, -0.049953f, 0.042230f, -0.131086f, -0.012866f, 0.136922f, -0.019106f, 0.015399f, 0.042712f, 0.136147f, -0.154180f, 0.056014f, -0.005914f, 0.013685f, 0.104608f, -0.119759f, -0.102923f, -0.201867f, -0.085607f, 0.138329f, -0.020066f, -0.122859f, -0.040987f, -0.145832f, -0.122660f, 0.044271f, -0.121236f, 0.114166f, 0.025416f, 0.016398f, -0.028620f, 0.077052f, 0.073660f, 0.015367f, 0.018351f, -0.012570f, 0.054194f, -0.015691f, 0.004429f, -0.022652f, -0.057252f, -0.048563f, 0.051641f, 0.119658f, 0.119628f, -0.114298f, 0.129935f, -0.044451f, 0.059161f, -0.081187f, 0.011267f, 0.032259f, -0.139282f, 0.069326f, 0.125266f, -0.016432f, 0.129975f, -0.003012f, 0.091029f, -0.225814f, 0.270567f, 0.147518f, -0.030593f, -0.198263f, 0.026397f, -0.157439f, 0.004350f, 0.049087f, -0.104243f, 0.127305f, 0.088109f, 0.101990f, -0.015270f, -0.135174f, 0.093484f, -0.023900f, -0.098120f, 0.145767f, 0.208667f, -0.004997f, 0.210463f, -0.011373f, -0.085755f, -0.051697f, 0.160897f, -0.058436f, 0.076380f, -0.050038f, -0.062165f, 0.123025f, -0.032336f, -0.053490f, 0.111731f, 0.173272f, 0.065429f, -0.078008f, -0.051421f, 0.013497f, 0.024319f, -0.100228f, 0.083674f, 0.019284f, -0.180604f, -0.091674f, -0.054671f, 0.006227f, 0.194935f, 0.021126f, -0.057930f, 0.022019f, -0.037448f, 0.031742f, 0.055815f, 0.108753f, -0.039166f, 0.169908f, 0.085658f, -0.056815f, 0.226905f, 0.037451f, -0.098520f, 0.174304f, 0.206175f, 0.001151f, -0.011586f, -0.006172f, 0.069641f, 0.126720f, 0.051724f, -0.011884f, 0.100456f, -0.023603f, 0.104520f, -0.010173f, 0.048579f, -0.005371f, -0.020312f, -0.016027f, 0.142350f, -0.087946f, -0.073340f, 0.223585f, 0.099464f, -0.251373f, -0.056504f, -0.178111f, -0.098804f, -0.311620f, -0.013300f, -0.101525f, -0.005465f, -0.160849f, -0.003123f, -0.033131f, 0.156741f, 0.141926f, 0.091405f, -0.033971f, 0.197235f, -0.155996f, -0.141642f, -0.015217f, 0.201105f, -0.017641f, -0.019553f, -0.134936f, 0.098941f, 0.098517f, 0.071713f, -0.054072f, -0.070348f, -0.125754f, 0.036500f, -0.100114f, -0.118904f, -0.043206f, -0.054572f, -0.073613f, 0.003145f, 0.015280f, -0.031883f, 0.035587f, -0.093936f, 0.016092f, 0.000148f, -0.128556f, 0.104993f, -0.103589f, 0.005863f, 0.129101f, 0.093800f, -0.012003f, -0.034674f, 0.098605f, 0.067035f, -0.062372f, -0.075722f, -0.194545f, 0.003964f, -0.006515f, 0.103202f, 0.050167f, 0.136762f, -0.071540f, 0.119823f, -0.055955f, 0.077721f, -0.146704f, 0.021081f, -0.202179f, -0.047527f, 0.048017f, -0.056196f, -0.094973f, 0.090347f, -0.007493f, -0.055277f, 0.010306f, 0.265290f, 0.121850f, 0.142402f, 0.051741f, 0.016241f, -0.240384f, -0.074683f, -0.069370f, -0.230370f, -0.111040f, -0.197410f, 0.009125f, 0.091821f, 0.115806f, 0.030789f, -0.077086f, -0.185074f, -0.190820f, -0.132672f, -0.079113f, -0.014442f, -0.115529f, 0.035054f, -0.018521f, 0.002331f, 0.113493f, -0.116233f, 0.057208f, -0.011660f, -0.032191f, 0.080730f, 0.097496f, -0.091179f, -0.021060f, 0.032931f, -0.027081f, 0.058504f, 0.026100f, 0.180520f, -0.158314f, -0.033898f, -0.088716f, 0.062920f, -0.154745f, 0.040853f, -0.059993f, -0.077446f, -0.137109f, -0.043099f, 0.113058f, 0.026413f, 0.069042f, 0.166401f, 0.025998f, -0.063481f, 0.021796f, -0.099572f, -0.044170f, -0.154763f, 0.104779f, -0.024252f, 0.023098f, -0.117372f, 0.054818f, -0.063125f, -0.030769f, 0.083672f, 0.088817f, -0.000717f, -0.189569f, 0.301030f, 0.178558f, 0.074404f, -0.074963f, -0.011704f, -0.036857f, 0.113865f, 0.027793f, -0.089308f, -0.035846f, 0.114035f, 0.160410f, 0.158078f, 0.074520f, -0.025254f, -0.323770f, 0.027580f, 0.000315f, -0.009818f, 0.008605f, -0.130232f, 0.061047f, 0.068899f, 0.070704f, 0.093811f, 0.065637f, -0.039854f, -0.004006f, 0.032493f, 0.015374f, 0.099951f, 0.065628f, 0.200368f, 0.202057f, -0.033617f, -0.376400f, 0.119537f, -0.040997f, -0.068523f, -0.035586f, -0.055676f, 0.068133f, -0.146546f, -0.121855f, 0.031286f, 0.070140f, 0.065773f, -0.091026f, -0.093901f, -0.044731f, 0.030127f, 0.148284f, -0.202733f, -0.010165f, -0.146571f, -0.165115f, 0.090553f, 0.063765f, 0.056275f, 0.092241f, -0.046318f, -0.044358f, 0.218686f, -0.024747f, 0.072147f, 0.003563f, -0.205338f, -0.201310f, -0.053860f, 0.110824f, 0.081792f, 0.093354f, -0.098582f, 0.166789f, -0.096020f, 0.022187f, 0.019035f, -0.014527f, 0.134057f, -0.068948f, -0.141680f, -0.013744f, -0.079168f, 0.345082f, 0.063104f, -0.028590f, -0.093944f, -0.184640f, -0.113326f, 0.014291f, 0.148209f, 0.097556f, 0.024128f, -0.019824f, 0.028582f, -0.066231f, 0.176517f, -0.014628f, -0.004388f, -0.219411f, -0.017689f, 0.097559f, -0.124179f, -0.073586f, 0.069834f, -0.133679f, 0.113745f, -0.052054f, -0.038595f, -0.117098f, 0.037540f, 0.248075f, 0.076687f, -0.079300f, 0.098000f, -0.026802f, 0.139049f, 0.087271f, -0.292002f, -0.098891f, 0.094414f, 0.017599f, -0.105529f, -0.065690f, -0.170903f, -0.008601f, 0.221152f, 0.082523f, 0.212046f, 0.075169f, 0.067704f, 0.206528f, 0.030279f, -0.005411f, 0.115523f, 0.148798f, -0.060419f, -0.070840f, 0.015610f, 0.070920f, 0.083557f, -0.128299f, 0.193638f, -0.078849f, -0.021393f, -0.087693f, 0.272646f, 0.026797f, -0.081181f, 0.096266f, 0.057819f, -0.018317f, 0.074092f, -0.069931f, -0.033448f, -0.202676f, -0.123041f, 0.177881f, 0.162558f, 0.008563f, 0.165165f, -0.014210f, -0.045052f, 0.010237f, -0.009389f, -0.016259f, 0.118468f, 0.017889f, 0.067199f, 0.108406f, 0.033837f, -0.102498f, -0.111507f, 0.016507f, -0.017662f, 0.010027f, -0.008601f, 0.242911f, -0.169696f, -0.189200f, 0.026351f, -0.025663f, 0.043857f, 0.062573f, 0.112779f, -0.147961f, -0.055544f, 0.031046f, 0.081884f, 0.231650f, 0.098619f, -0.020647f, -0.083471f, -0.054998f, -0.065444f, 0.069248f, 0.024654f, -0.118820f, -0.060758f, 0.088019f, 0.023440f, 0.067404f, 0.054752f, 0.160893f, 0.041807f, -0.038423f, -0.094022f, 0.025995f, -0.244484f, -0.020411f, -0.045577f, -0.133808f, -0.087172f, 0.083263f, 0.029709f, 0.013532f, 0.024724f, 0.018454f, 0.117701f, 0.002902f, -0.117344f, 0.166929f, 0.035789f, -0.058180f, -0.132362f, 0.020628f, -0.054626f, 0.167401f, -0.040920f, -0.071436f, 0.099763f, 0.097422f, -0.003154f, 0.072838f, -0.008202f, 0.006536f, 0.116949f, 0.072736f, -0.014734f, 0.119146f, -0.230964f, 0.207349f, -0.171394f, -0.059906f, -0.002889f, 0.000349f, 0.082425f, -0.105386f, 0.014912f, -0.048104f, 0.042199f, -0.010123f, 0.036882f, -0.051025f, -0.054567f, 0.028375f, 0.095394f, -0.069260f, -0.121278f, 0.063856f, 0.002185f, 0.087086f, -0.085738f, -0.173068f, -0.065045f, -0.062107f, -0.017425f, -0.072003f, 0.115696f, -0.025661f, 0.013372f, 0.017220f, 0.012029f, -0.026991f, 0.000300f, -0.066568f, 0.127767f, -0.008098f, -0.115920f, 0.024549f, -0.112364f, 0.070685f, 0.216453f, -0.088475f, 0.033860f, -0.169196f, 0.047789f, -0.104429f, -0.059578f, -0.110645f, 0.070004f, 0.103156f, 0.003420f, -0.069500f, 0.147486f, -0.075351f, -0.225985f, 0.052004f, -0.089190f, 0.093187f, -0.017231f, 0.062848f, 0.136743f, -0.121597f, -0.054557f, -0.011920f, 0.123789f, -0.065252f, -0.056362f, 0.051611f, -0.055679f, 0.018927f, -0.165292f, 0.233995f, -0.145120f, -0.040345f, 0.042829f, 0.198696f, -0.134875f, 0.197834f, 0.069616f, 0.014590f, -0.149066f, 0.070366f, -0.084043f, 0.144769f, -0.085279f, -0.004680f, -0.085911f, -0.088946f, 0.071983f, 0.049920f, 0.121532f, -0.167520f, 0.107620f, 0.233863f, -0.041649f, 0.187664f, -0.032487f, -0.134359f, -0.025489f, 0.125827f, -0.096857f, -0.059158f, 0.046700f, 0.015467f, 0.075947f, 0.015842f, 0.065935f, -0.040766f, 0.019995f, -0.093823f, 0.131224f, -0.066840f, 0.080541f, -0.023704f, 0.022619f, -0.047440f, -0.100468f, -0.171263f, -0.114182f, -0.018637f, 0.010287f, 0.082383f, -0.007543f, -0.085038f, -0.146347f, 0.047716f, 0.131395f, 0.100161f, 0.021256f, 0.072906f, 0.157327f, 0.047222f, 0.079719f, -0.026715f, -0.162425f, -0.064798f, -0.004596f, -0.001671f, 0.199307f, 0.020723f, 0.118724f, -0.060918f, -0.028262f, -0.139777f, -0.081106f, 0.056494f, 0.007301f, 0.114490f, 0.003074f, -0.032940f, 0.201560f, 0.009335f, 0.133189f, -0.047591f, 0.092267f, 0.097418f, 0.017662f, -0.237338f, 0.005072f, 0.118449f, 0.010784f, 0.044531f, -0.171093f, -0.069548f, 0.044098f, 0.044960f, 0.113604f, 0.000043f, 0.029648f, -0.007315f, -0.057737f, -0.219042f, 0.041777f, 0.016032f, -0.067466f, -0.189721f, 0.008451f, -0.017073f, 0.043543f, 0.201316f, -0.201164f, -0.064112f, -0.047060f, 0.152142f, -0.161504f, 0.189048f, 0.027323f, 0.003133f, -0.018390f, -0.060603f, 0.106259f, -0.115846f, 0.022372f, -0.032660f, -0.072884f, 0.278318f, 0.032445f, 0.064236f, 0.096412f, -0.125243f, 0.197452f, -0.258052f, -0.060274f, -0.038411f, 0.054665f, 0.018889f, -0.012477f, -0.003721f, -0.138063f, -0.152345f, 0.080836f, 0.070664f, 0.158256f, -0.074660f, 0.065177f, -0.012602f, 0.104907f, 0.092035f, 0.061775f, -0.030198f, 0.094460f, 0.063464f, -0.074722f, -0.162281f, -0.082655f, 0.159561f, 0.104179f, -0.096573f, -0.098779f, 0.133418f, -0.138725f, 0.054970f, -0.060324f};

const float dense1_biases[16] = {0.032407f, 0.040124f, -0.000460f, -0.001275f, 0.015528f, -0.005064f, -0.013023f, 0.026441f, 0.004613f, 0.012172f, 0.016754f, 0.010600f, 0.002257f, 0.010431f, 0.010206f, 0.014041f};

